baseline_8/conv2d_7/kernel:0
(5, 5, 3, 6)
[[[[ 0.19386701  0.11767076  0.19726184  0.19894701  0.00556615
    -0.1736507 ]
   [-0.17076655 -0.12720932  0.05426989 -0.02609714  0.20102918
     0.04554852]
   [ 0.16702713 -0.05850682  0.04457461  0.08577029  0.12462577
     0.26211226]]

  [[ 0.3483776   0.01623862  0.320816    0.00698975 -0.05991028
    -0.04734717]
   [ 0.16528492 -0.05449146  0.15058434 -0.34984538 -0.08350758
     0.192789  ]
   [ 0.0286923   0.15382008 -0.02033365 -0.02925204  0.02990356
     0.17615396]]

  [[ 0.09558231  0.00988495  0.22430469 -0.09541668 -0.23187533
    -0.21045308]
   [-0.0864696   0.16294642  0.14981224 -0.2407662  -0.37540647
     0.01689297]
   [-0.08158334  0.2974517   0.15794645 -0.03519586 -0.10811025
     0.24274369]]

  [[-0.04740361 -0.22176445  0.21482538  0.04278171  0.20675004
    -0.212385  ]
   [-0.06909388  0.03066172  0.19647661  0.09073072  0.1772363
    -0.09061671]
   [ 0.03006156  0.2317955  -0.11663751 -0.05664459  0.0406397
     0.20883107]]

  [[-0.24473397 -0.2678742   0.04727433  0.1065034   0.00998695
    -0.11882166]
   [-0.19035748  0.1314906  -0.01540804  0.07725088 -0.00665409
     0.01559881]
   [-0.08013383  0.11079696  0.0155936  -0.00572311  0.00196063
    -0.16158886]]]


 [[[ 0.37618548  0.16171066 -0.20569855  0.10485663 -0.12534921
     0.02883038]
   [ 0.16632672  0.12385433 -0.29509932  0.1082795   0.03447976
     0.01575639]
   [ 0.06834529 -0.04349209 -0.10016031  0.19543466 -0.13211079
     0.07086345]]

  [[ 0.05584946 -0.00058904 -0.10233435 -0.179489    0.15601479
    -0.0155419 ]
   [-0.09617239  0.12166999 -0.2055946  -0.0485019   0.18364757
    -0.00807209]
   [-0.00207391 -0.12341001 -0.15369293 -0.19074288  0.23620977
     0.31458092]]

  [[ 0.07250125 -0.38208476 -0.31596735 -0.04954486  0.04249366
    -0.29145607]
   [-0.03974468 -0.04988442 -0.11822247 -0.1930305   0.19240215
     0.10147414]
   [-0.29122943  0.19065984 -0.16973424 -0.13289419 -0.02601205
     0.31314132]]

  [[-0.14269044 -0.20144387 -0.16641946  0.04764684 -0.05759306
    -0.28065473]
   [-0.2879303  -0.02981994  0.15945055  0.11847589 -0.20816907
     0.10799555]
   [-0.07809998  0.1322005  -0.07317448  0.17302182 -0.2305235
     0.2674824 ]]

  [[-0.09624445 -0.13433713  0.10597161  0.05266973  0.10760858
    -0.07978875]
   [ 0.02489361  0.11166746  0.01802466  0.14372684 -0.04667174
    -0.072992  ]
   [-0.04659394  0.2176479  -0.1307291  -0.09115149 -0.17570776
    -0.01693078]]]


 [[[ 0.10799822 -0.05302379 -0.00070301  0.24368075 -0.24684407
     0.24108592]
   [-0.05792651  0.00159114 -0.07563657  0.2255937  -0.01688362
    -0.20629491]
   [-0.03700015 -0.24560133  0.01989889  0.12966458 -0.19144776
     0.03280522]]

  [[-0.03779459 -0.11543512  0.00332288 -0.2305537   0.16154377
     0.04823802]
   [-0.2723198  -0.13831946  0.07834104 -0.14254218  0.04975933
    -0.08301426]
   [-0.13795707 -0.11790572  0.08298359 -0.21383074  0.14410542
     0.23932531]]

  [[ 0.08328114 -0.0672041  -0.34594437 -0.24217957  0.16524561
    -0.04708282]
   [-0.18479244  0.0947613  -0.05930509 -0.35353035  0.35077578
     0.01332862]
   [-0.08223729  0.11626906 -0.20453095 -0.19582233  0.34442732
     0.20020962]]

  [[ 0.11188635 -0.04696626 -0.18166167  0.23348348 -0.14431457
     0.01610545]
   [ 0.19205064  0.02616952  0.14053759  0.13477409 -0.0771952
    -0.06333554]
   [ 0.05674212  0.24605733 -0.15006745  0.07051568  0.06047045
     0.15776378]]

  [[ 0.11785259 -0.20413819 -0.01666132  0.03380328 -0.19617672
     0.19638765]
   [ 0.1549023   0.1596975  -0.16185306  0.05911527 -0.31246307
    -0.22896974]
   [-0.02675164  0.03302066  0.13907108  0.16980253 -0.35135975
     0.0121172 ]]]


 [[[-0.16415127  0.12276077  0.02339249  0.10119582 -0.0107338
     0.279448  ]
   [-0.2702818   0.19311494  0.05809618  0.11590259  0.06614904
    -0.20874764]
   [-0.05722873  0.05703677  0.12285775  0.15699436  0.01105465
    -0.15613161]]

  [[-0.22726783  0.01826905  0.01787584 -0.13326217  0.12800425
     0.29060104]
   [-0.22690566 -0.0633512   0.2272059  -0.09173056  0.05847959
    -0.11067412]
   [ 0.04590949  0.06217126  0.29255986 -0.14914303  0.25913262
    -0.17476703]]

  [[-0.14344914 -0.11375658 -0.06002882 -0.26100746 -0.11707203
     0.29330876]
   [ 0.11552636 -0.04906843  0.1709889  -0.24343215 -0.27153704
    -0.17335403]
   [-0.07116928  0.23625775  0.16592649 -0.02769502 -0.09875389
    -0.14888868]]

  [[-0.17167132 -0.31200373  0.04049287  0.23088646  0.00427902
     0.06054512]
   [ 0.00777334 -0.1468392   0.31939346  0.11225227  0.04315685
     0.0496429 ]
   [ 0.23657018 -0.00346321  0.09872242  0.19829525 -0.01631647
    -0.08410728]]

  [[ 0.03476967 -0.0924428  -0.17391095  0.0161539   0.17633593
     0.08291795]
   [ 0.28237614  0.02580868 -0.14240198  0.04818873 -0.02415656
     0.05969333]
   [ 0.00216905  0.11462071  0.13879919 -0.05781222  0.00702343
    -0.24252456]]]


 [[[-0.15283942 -0.12338485 -0.02556155 -0.08062927 -0.03106991
     0.13184749]
   [-0.28930712 -0.09621578 -0.19051966  0.11238419  0.23643707
    -0.03445273]
   [ 0.00616326  0.14106213  0.04841871  0.23454186  0.00645842
    -0.12117583]]

  [[ 0.11913358 -0.23338237  0.02990931 -0.11528679 -0.0774109
     0.16371857]
   [-0.07236166 -0.01942729 -0.10174572 -0.2584837   0.01935728
    -0.07607943]
   [ 0.06857872 -0.02181049  0.03965071 -0.1247102  -0.06461948
    -0.02246606]]

  [[ 0.0598106  -0.1650552  -0.08400219 -0.23470476 -0.1948369
     0.09194144]
   [ 0.08107569 -0.16712376  0.00485582 -0.29331514 -0.16423158
    -0.02380176]
   [ 0.08977344  0.1975603  -0.18579997 -0.04587134 -0.08746602
    -0.12450644]]

  [[-0.09411651 -0.15342869  0.26089618  0.1709875   0.00976754
     0.05933696]
   [ 0.057756   -0.08068753 -0.02941626 -0.10902853  0.0879994
    -0.02198888]
   [ 0.16068672  0.15542254 -0.16041909  0.24086733  0.03461128
    -0.07134202]]

  [[ 0.11597462 -0.06110288  0.05902283  0.0792041   0.11011375
     0.13185388]
   [ 0.03074392 -0.21186179 -0.17462629  0.09819286  0.05648147
    -0.0478168 ]
   [ 0.15811168  0.1971766   0.10861748 -0.01381333  0.06290083
    -0.23335141]]]]
baseline_8/conv2d_7/bias:0
(6,)
[-0.11709087 -0.01946062  0.20465198  0.20043327  0.01487641 -0.05030307]
baseline_8/batch_normalization_7/gamma:0
(6,)
[0.7609482  0.4667716  0.8459858  0.93458825 0.62236786 0.5978067 ]
baseline_8/batch_normalization_7/beta:0
(6,)
[-0.5488756   0.00550038 -0.43738347 -0.48446116 -0.15252663 -0.26009288]
baseline_8/dense_14/kernel:0
(1536, 128)
[[ 1.01935389e-02  3.97398621e-02 -5.10973558e-02  4.49700169e-02
  -1.49499625e-01 -2.60394206e-03  3.01746279e-03 -7.99828023e-02
  -5.16031943e-02  3.29914019e-02  9.66681987e-02  6.63276529e-03
  -4.80964361e-03  5.29472642e-02 -3.28432657e-02 -3.82315591e-02
  -7.29901530e-03  1.91335846e-02 -6.75847456e-02  3.29292603e-02
  -3.97564657e-02 -5.58717623e-02  9.96260867e-02 -3.07985060e-02
   1.96459144e-02  4.67850864e-02  5.01515456e-02  1.17682338e-01
   5.85301686e-03  3.63507830e-02 -1.44057423e-01  5.75073697e-02
  -1.33284166e-01  2.61735786e-02 -1.10624023e-02 -9.88028664e-03
  -2.39907075e-02 -7.50642046e-02  1.36823561e-02 -6.77615553e-02
  -3.42771485e-02 -1.61731876e-02 -3.81972492e-02 -2.28926316e-02
  -5.60189374e-02  6.19156137e-02 -2.76312102e-02 -6.66225031e-02
  -1.19645849e-01 -1.03002399e-01  2.47235633e-02  1.07054990e-02
   1.25701707e-02 -7.91415125e-02 -3.60440873e-02 -6.62440713e-03
  -1.36930300e-02 -2.50407457e-02 -6.40202463e-02 -3.81310447e-03
   1.26680760e-02  6.69624805e-02 -1.99730825e-02 -1.51799107e-02
  -5.99506125e-02  4.71822843e-02 -1.84580293e-02  2.71530021e-02
   2.31379759e-03 -6.39182851e-02 -4.03317548e-02  7.65543133e-02
  -2.80583221e-02  1.11378767e-02  5.49797267e-02  7.28016673e-03
   9.03148353e-02 -6.41794652e-02  3.62187549e-02 -3.12781036e-02
   5.13222218e-02 -2.09412072e-02 -3.89400609e-02  1.58423227e-05
   2.96681561e-02  2.85270642e-02  6.53804317e-02  7.95934722e-02
  -7.13192374e-02 -3.66955474e-02  1.66162979e-02  9.11519490e-03
  -1.37585169e-02  3.01362816e-02 -6.41497225e-02 -5.36231324e-02
  -4.74814624e-02  2.44246610e-02  1.62641495e-01  3.74065340e-02
  -7.56173059e-02 -6.08101301e-02 -8.25227611e-03  2.54135206e-02
   1.55979404e-02  5.02263531e-02  1.01779282e-01 -1.07528575e-01
   2.44630873e-02 -4.79444675e-02 -6.78378418e-02 -1.90414768e-02
   8.46188515e-02 -8.32412392e-02  7.64865428e-02 -1.13333032e-01
  -4.98751588e-02 -5.26632294e-02 -4.66161966e-02  4.97230180e-02
  -1.53666604e-02  1.72406752e-02 -1.48932422e-02 -6.84821326e-03
   2.53204573e-02 -1.42502757e-02 -2.81431191e-02 -3.44483629e-02]
 [-3.70857166e-03  2.39825062e-02 -3.41434740e-02 -1.16807474e-02
   1.79075245e-02 -1.84155349e-02  1.49974048e-01 -2.07105577e-01
   3.70940380e-02  5.66250533e-02 -5.12994267e-03 -1.41320680e-03
   1.86418835e-02  1.68106314e-02 -7.48997107e-02  1.94237381e-02
   1.91306680e-01 -8.22645426e-02  2.10723914e-02 -1.97106376e-01
   1.58349853e-02 -3.65453139e-02  1.47229724e-03  9.41929966e-03
   5.42348251e-02  9.20803100e-02  2.33569946e-02 -6.65449947e-02
   9.00129974e-02  1.23430923e-01 -3.18940803e-02  9.27806497e-02
  -1.04123883e-01 -6.77677393e-02 -1.63926482e-01 -1.17071802e-02
   6.63270131e-02 -9.40488279e-02  5.24011021e-03  4.10146378e-02
  -1.09616876e-01  2.11995021e-01  4.01211483e-03 -2.19028257e-02
  -5.83468005e-03  5.02959117e-02 -6.84329821e-03 -2.53937170e-02
   7.19134957e-02  7.10185319e-02  1.29909158e-01 -1.68246273e-02
   2.39773706e-01  4.29692445e-03 -4.76832017e-02 -2.19970614e-01
  -7.46612549e-02  6.78768964e-04 -2.76950262e-02  1.11759856e-01
   6.97649876e-03 -1.04338743e-01  4.88176644e-02 -5.99113330e-02
   1.57785341e-02 -2.17296362e-01  5.95604768e-04 -1.02319971e-01
  -4.02642507e-03 -6.32242486e-02 -1.09749056e-01 -9.27737430e-02
   6.80087507e-03 -6.99730366e-02 -4.54545429e-04  2.11751536e-01
  -7.69332647e-02  2.34214067e-01 -1.96151346e-01 -1.23339407e-01
  -9.13725346e-02 -1.03616990e-01  1.11177012e-01 -4.84283268e-03
   3.79923894e-03 -2.27340441e-02 -7.54318759e-02 -1.45501522e-02
  -1.36938877e-02 -8.72543361e-03 -1.09208301e-01  1.80970803e-01
  -7.44454786e-02  1.02428757e-01  5.13850972e-02 -1.29306084e-02
  -5.42838909e-02 -5.43136112e-02 -4.76288609e-02  5.31231798e-03
   1.30097508e-01  1.81208387e-01 -2.03528535e-02 -5.87343089e-02
  -1.76974282e-01 -1.05358278e-02 -9.58261788e-02 -1.20684365e-02
  -1.92345178e-05  1.90842580e-02  3.70650217e-02 -1.35301113e-01
  -6.35904819e-02  5.88497613e-03  3.12696137e-02  3.31740305e-02
   7.44948238e-02 -5.14669344e-03 -3.25287543e-02 -1.00239113e-01
  -5.36807477e-02 -6.67126402e-02 -2.75074672e-02 -1.54243469e-01
  -5.29892147e-02 -5.74488863e-02 -6.50760382e-02 -2.47069821e-02]
 [ 2.42980979e-02 -8.78084451e-03 -4.10665609e-02 -6.06910922e-02
  -2.58581012e-01  1.69469908e-01  2.67365165e-02  1.35885505e-02
  -5.64033873e-02 -1.04181513e-01  2.06835702e-01  8.99545755e-03
   7.13345557e-02  1.15205854e-01 -1.12188995e-01 -2.97218636e-02
  -9.81043577e-02 -2.14002766e-02 -5.45380451e-02  8.68999586e-02
  -6.43086955e-02 -8.53919759e-02  1.62855983e-01 -7.83568323e-02
  -1.37473671e-02 -4.02217031e-01 -3.83534282e-02  5.04584610e-02
   8.17693770e-02 -2.12869540e-01 -2.66434811e-02  1.50430292e-01
  -6.48030192e-02 -1.40871489e-02 -4.10125852e-02 -2.59734597e-02
   2.87345471e-03 -5.49199507e-02 -1.21329045e-02 -6.24129772e-02
  -3.32410932e-01 -2.76410848e-01 -4.83756550e-02 -9.10191610e-02
  -2.85239536e-02  1.39219433e-01 -1.95134692e-02 -7.67800305e-03
  -1.29068434e-01  3.74220050e-04  4.87575084e-02 -1.92038505e-03
   4.24133092e-02 -1.22487329e-01 -1.65548560e-03 -1.28856957e-01
  -5.43020247e-03  7.00771902e-03 -1.93231273e-02 -5.11869527e-02
  -3.62625048e-02  2.47316007e-02 -1.47183938e-02 -7.74324760e-02
   3.67088877e-02 -1.44612581e-01  1.95421707e-02 -6.25657812e-02
   1.52674913e-01  2.52752919e-02 -9.38888267e-03  2.17164829e-01
  -5.37513904e-02  1.89589732e-03  1.65606290e-01 -1.00974992e-01
  -8.47632531e-03 -1.41668364e-01  3.07290778e-02 -1.00720942e-01
  -1.39187485e-01  2.00836267e-02 -1.52349025e-02 -6.42688200e-02
   8.99635553e-02 -2.87901592e-02 -6.96402863e-02 -1.72463194e-01
  -2.81047132e-02  4.66846153e-02 -1.52517706e-01 -1.03638344e-01
   1.28729539e-02  1.33617967e-01 -4.49551269e-02  3.27144214e-03
   4.28502001e-02 -5.96391894e-02 -1.34785950e-01  1.31522700e-01
  -2.48027071e-02  6.19141944e-02 -9.64928605e-03  2.81476602e-02
  -1.16285764e-01  2.56301053e-02 -1.00023411e-01 -4.20127138e-02
  -7.23391585e-03 -5.25445417e-02  4.21066135e-02  9.07463804e-02
  -1.13386072e-01  2.91321203e-02 -2.24873889e-02 -9.10074636e-03
  -5.01254015e-02 -4.75290651e-03 -5.97204380e-02 -2.33802497e-02
  -1.42410453e-02  1.87730454e-02  2.81579718e-02  9.53952596e-02
  -3.49422209e-02  4.72966246e-02  1.62637770e-01 -5.35717458e-02]
 [-5.15257604e-02  4.58462676e-03 -3.57584246e-02 -1.29139021e-01
  -6.22767881e-02 -2.17467591e-01  2.07804739e-01 -5.91231547e-02
  -7.91643783e-02 -4.29887213e-02  4.34147082e-02 -2.48821806e-02
   2.00079400e-02 -1.64279655e-01  1.51662424e-01 -9.29747708e-03
  -2.44055297e-02 -6.32150099e-02  1.99768096e-02 -8.81474763e-02
   2.68713180e-02  2.98383571e-02  4.72324481e-03 -3.12303454e-02
  -4.22613248e-02  9.48027000e-02  5.29821366e-02 -2.63350946e-03
  -1.49995640e-01  1.91266119e-01 -5.85065186e-02  2.65206456e-01
  -1.40256092e-01 -1.03591703e-01  1.92881331e-01 -2.90497858e-02
   1.88915625e-01  1.69074703e-02 -5.02507016e-02  2.20856629e-02
   8.46749172e-02  2.24852562e-01 -5.28910495e-02 -4.97434214e-02
  -1.57827586e-02  3.44955251e-02  9.53844097e-03  2.75230072e-02
   6.63483143e-02 -1.09634906e-01  7.69645776e-05 -3.37921381e-01
   7.10384771e-02  1.47063136e-02 -3.76873203e-02 -2.29707435e-02
   4.61126827e-02  8.67586874e-04  3.10544595e-02  8.74933675e-02
   2.89734881e-02  2.23776117e-01  2.87165735e-02 -5.14470190e-02
   5.75304916e-03  8.85826796e-02 -1.98483653e-02 -1.82100907e-02
   1.01023681e-01 -1.65018067e-02  2.84391325e-02  1.10343032e-01
  -1.85373016e-02 -3.38797756e-02 -1.25744641e-02  8.01126882e-02
   1.40421852e-01  1.45935297e-01 -2.36119926e-01  7.03265443e-02
  -1.97127610e-01  9.39211249e-03  5.32432273e-02 -1.02158822e-02
  -2.02186227e-01 -2.43571475e-02 -4.60343948e-03  1.79472491e-01
  -2.75020730e-02  3.30763981e-02  1.01737477e-01 -3.75292562e-02
   4.53994796e-02 -2.18772233e-01 -1.75580150e-03 -1.73278935e-02
  -4.30262089e-02 -8.35113786e-03 -9.79964808e-02  1.13978557e-01
   7.25137582e-03 -7.63218626e-02  3.87096033e-02 -6.88732564e-02
   1.10667154e-01 -5.28965928e-02  2.41965979e-01  3.34396064e-02
   2.63008624e-01 -1.05297171e-01 -4.90850471e-02 -1.47510827e-01
   1.75694272e-01 -3.68563533e-02  1.57251582e-02  2.60066688e-02
  -5.23805805e-02 -6.37333468e-02  7.15415552e-03 -1.26995251e-01
  -8.76345579e-03  5.62120695e-03 -2.24643927e-02 -4.33231816e-02
  -5.29566184e-02  6.01865491e-03 -1.59772679e-01  4.89755496e-02]
 [-2.00346801e-02 -1.35807814e-02 -3.58136147e-02  1.01443581e-01
  -1.12636006e-02  3.50500979e-02  5.99418059e-02  6.16130196e-02
   1.33452909e-02 -2.37245876e-02  1.41643301e-01 -1.44294515e-01
   1.81626260e-01  9.42903012e-02  9.61759016e-02 -4.76962067e-02
  -5.80339544e-02  1.24172382e-02 -2.27822177e-02  1.09495051e-01
  -7.53483688e-03 -7.60064647e-02  2.23341182e-01  3.01343668e-02
   1.17046537e-03  7.70448819e-02  2.45843694e-01  1.46137774e-01
  -1.72979815e-03 -1.69507250e-01 -2.88562453e-03 -1.67930156e-01
  -1.16749629e-02 -3.64880376e-02 -4.96922620e-02 -1.81616452e-02
   4.75720018e-02  2.66586267e-03 -5.26120998e-02 -7.42728338e-02
  -1.35848327e-02 -3.37195322e-02 -1.54145928e-02  5.86910732e-02
  -6.99366033e-02  1.11021511e-01  5.90069927e-02  2.14141347e-02
  -1.06290452e-01  1.07749261e-01 -1.83426738e-02  1.81845710e-01
  -9.82894301e-02 -9.95478854e-02 -3.40882242e-02  1.50719687e-01
   1.26077272e-02  2.59096213e-02  2.40731835e-02  6.08936092e-03
  -7.07568526e-02  1.51688054e-01  3.08856666e-02 -8.70794132e-02
   5.82051538e-02 -9.96195897e-02  5.68574518e-02  7.62544349e-02
   4.40712832e-02  1.39999976e-02 -4.43492606e-02  3.08764666e-01
  -8.35589468e-02 -5.37848584e-02  2.48321176e-01 -1.68516561e-02
   1.19802445e-01 -2.29587927e-01  1.52840659e-01  3.64634097e-02
  -1.42971734e-02  2.95821931e-02 -3.85032706e-02 -7.29242638e-02
   1.50907815e-01 -3.99921723e-02  1.05268344e-01  1.03114650e-01
   2.82189045e-02 -6.69025481e-02 -4.40958552e-02  1.05699591e-01
  -7.47744739e-02  7.84255937e-02 -6.44640252e-02  2.88473349e-02
  -5.56655228e-02 -6.52751327e-02  3.67557630e-02  7.30715543e-02
   4.27791178e-02 -2.34318022e-02  1.46439113e-02 -1.19032683e-02
   5.29099479e-02  5.37139922e-03  3.12128365e-02 -3.51559743e-02
   1.13334768e-01 -2.29705293e-02 -3.52311297e-04  1.76510572e-01
   5.13373464e-02 -3.63404416e-02 -9.05219559e-03 -8.48552734e-02
   8.00532568e-03 -3.43658887e-02  3.44310105e-02  1.30986139e-01
   9.20071639e-03 -5.74931502e-02  1.60412525e-03  3.77495848e-02
   5.28115332e-02  3.90013754e-02 -9.02074799e-02 -6.61609918e-02]
 [ 4.36097011e-02  4.91044158e-03 -9.17770863e-02  2.53303885e-01
  -9.27083641e-02  1.10422075e-02  3.06866821e-02  8.88293311e-02
   5.22768795e-02  2.69221142e-02 -2.36218795e-01 -1.38858214e-01
   1.23273060e-01  9.46081877e-02 -6.92138895e-02  1.28165111e-02
   1.10283211e-01  9.32591632e-02  1.02994759e-02 -4.69702557e-02
  -9.31249931e-03 -9.56737101e-02  2.22091943e-01 -4.65552695e-02
   1.61290094e-02  9.88611728e-02 -2.36698568e-01 -1.97449118e-01
  -7.68275559e-02 -4.50772405e-01 -2.24555191e-02 -1.80272952e-01
   1.38502702e-01 -6.08040132e-02  1.12457193e-01  1.39995795e-02
  -3.00356783e-02 -1.07269540e-01 -1.18023772e-02 -5.19077517e-02
   2.38650218e-01 -1.57379463e-01 -1.87671371e-02  5.18607274e-02
  -4.50188387e-03 -7.35979304e-02 -4.33836132e-02  6.22149147e-02
   1.79322317e-01 -8.59700143e-02  4.08830315e-01  1.68151051e-01
   1.81612790e-01 -4.45398763e-02  4.14667139e-03 -1.66437272e-02
  -4.54889052e-02 -7.81590343e-02 -4.43961918e-02 -7.29193166e-02
  -2.46919896e-02  2.98990086e-02 -4.77564223e-02 -5.81411906e-02
   2.04618722e-02  7.88196400e-02 -1.77240595e-02  1.21409118e-01
  -3.20049971e-01 -3.79945785e-02 -3.48468497e-02 -3.17433178e-01
   2.66820937e-02 -9.99676064e-03 -2.09907785e-01  4.30089146e-01
  -2.66317725e-01 -2.49829233e-01 -7.37933367e-02 -1.34068310e-01
   1.11256637e-01 -5.13039678e-02 -1.08417712e-01 -2.47753598e-02
   6.71197325e-02 -9.06487869e-04  4.50540446e-02  1.00407116e-01
  -5.94343506e-02  2.29154527e-02  2.26816326e-01 -5.14499918e-02
  -7.91821703e-02  2.27780625e-01  3.00603509e-02  3.41764688e-02
   2.58731991e-02 -1.32783502e-03 -8.86458978e-02  6.44460022e-02
   1.78169042e-01  7.79712945e-02 -1.88312195e-02  2.99513191e-02
  -1.27929226e-01  1.31197181e-02 -2.01158687e-01  5.15763694e-03
   2.44928688e-01 -4.83975895e-02  4.41168714e-03 -1.31649047e-01
   1.95100699e-02 -4.02237549e-02  1.38980463e-01 -2.04394355e-01
   3.79553065e-02  1.23311058e-02 -5.73259331e-02 -1.27489612e-01
  -4.18429449e-02 -6.54960200e-02 -1.79311223e-02 -2.51389533e-01
  -2.62657553e-02  5.48975915e-02  6.92131370e-02 -4.59589064e-04]
 [ 2.92987213e-03 -1.67458467e-02 -2.49646846e-02 -1.05146922e-01
  -2.07232594e-01 -1.78654511e-02 -1.92302577e-02 -1.65014416e-01
  -3.40421684e-02 -3.22408564e-02 -8.47295746e-02  4.63841632e-02
  -2.30154358e-02  7.18779489e-02  4.23027249e-03 -3.24826688e-02
   1.95374444e-01 -7.64749795e-02 -4.80064563e-02 -1.74175113e-01
  -2.44649034e-02  2.92549990e-02 -9.43977088e-02 -3.06794420e-02
  -4.25444841e-02  2.20620900e-01  1.50035312e-02  1.82308137e-01
  -1.23484321e-01 -7.08281323e-02 -3.48622650e-02 -1.83418971e-02
   1.46563783e-01 -3.87523137e-02  1.89350352e-01 -3.90267861e-03
   2.85645366e-01 -1.10395066e-01 -4.29642871e-02  3.82693321e-03
   1.05105340e-01  2.62819827e-02 -4.00152989e-02  4.20745425e-02
  -2.97170505e-02  5.77937439e-02 -3.06347087e-02  1.76394172e-02
   9.78245363e-02  4.56675217e-02 -3.35052684e-02 -2.36259624e-01
  -3.38699929e-02  2.19210163e-02  3.96234840e-02 -1.34578183e-01
   3.91926542e-02 -2.51412801e-02  3.77239510e-02  3.40688154e-02
   7.64893601e-03  3.15095112e-02 -4.87273820e-02 -5.20768464e-02
  -2.20003501e-02 -5.80390403e-03 -6.49497807e-02  4.56052125e-02
   9.25242007e-02  4.00695950e-02 -6.14716150e-02 -1.45185262e-01
  -5.84347062e-02 -4.95574288e-02 -1.17179558e-01 -9.48145837e-02
   8.93909577e-03 -9.56555754e-02 -2.40972802e-01  1.78902633e-02
  -1.33657232e-01 -3.47490497e-02  1.57541007e-01  1.08850775e-02
  -6.84987083e-02  1.02118021e-02 -4.44258004e-02  3.99124064e-02
  -8.56035352e-02 -4.56437394e-02  8.83596763e-02  9.40237865e-02
   3.93953696e-02 -3.50102425e-01  2.29348745e-02  2.59041488e-02
  -3.91554125e-02  5.14446162e-02  8.84160921e-02 -8.61231312e-02
   6.78561851e-02 -5.27131110e-02  3.33980955e-02  3.54703330e-02
   1.82520941e-01  3.19337621e-02  1.63058788e-01 -9.28745270e-02
   1.18435128e-03 -8.70815292e-02 -1.31432293e-02 -7.09914118e-02
   8.95037353e-02 -5.72993048e-02 -3.44826430e-02  4.31070887e-02
  -5.62633760e-02 -5.41845486e-02 -6.53746277e-02 -1.28444940e-01
   2.47799978e-02  2.63187345e-02  1.01823555e-02 -1.93261415e-01
  -1.19828060e-02  3.27420384e-02  2.10799314e-02  3.47239934e-02]
 [-2.60223020e-02  3.80293019e-02  1.80769879e-02  1.69524163e-01
   2.00738624e-01  1.23407105e-02 -1.32096872e-01 -1.80375576e-02
  -7.56186694e-02  5.36795780e-02 -6.61292747e-02 -5.44199049e-02
  -8.40241164e-02  4.56077419e-02  1.16077960e-02 -2.03218162e-02
   4.47421335e-02 -6.88364357e-02 -5.72584430e-03 -2.88296998e-01
   2.41208225e-02 -6.89036176e-02 -1.61993861e-01 -5.08421138e-02
  -5.70383891e-02  1.79906577e-01  2.30681717e-01 -8.71189833e-02
   6.92249089e-02  1.56391054e-01 -6.51691295e-03 -6.41745329e-02
  -8.77359286e-02  2.06715260e-02  7.24350959e-02 -2.29710825e-02
   7.34616965e-02 -2.36502895e-03  4.55430709e-02  8.37110505e-02
   1.09625787e-01 -3.64061855e-02 -3.66507769e-02 -1.90038104e-02
  -5.52047566e-02 -2.67701775e-01 -5.68870790e-02  9.95880440e-02
  -8.10665041e-02  4.39697988e-02 -1.91864461e-01 -2.04318902e-03
  -6.33734316e-02  2.09138356e-02  5.51281171e-03 -2.85777062e-01
   2.47477042e-03  1.13547862e-01  8.97206366e-03 -3.93527038e-02
   2.05894727e-02 -3.19912545e-02  4.36417460e-02  1.30555248e-02
   2.27637365e-02  1.52927190e-01 -1.14972182e-02 -2.01103628e-01
  -9.47280452e-02  3.99254896e-02  1.80596567e-03 -1.56620905e-01
   1.24511123e-03  3.20706815e-02 -1.39298096e-01 -5.42641133e-02
  -6.97167441e-02  1.88753143e-01 -3.12444508e-01  8.96876752e-02
  -7.46388882e-02 -6.15855269e-02 -6.22508824e-02 -5.30933961e-02
   1.15675673e-01 -2.10958067e-02 -2.40341406e-02  1.02894329e-01
  -5.33004999e-02 -3.66452299e-02 -3.03871259e-02  1.18215516e-01
  -2.53289100e-02 -1.41173869e-01  3.47424001e-02  6.01522997e-02
   5.35832271e-02  2.44017802e-02 -1.47242129e-01 -4.02643196e-02
   4.84493747e-02 -7.77174830e-02  1.42214643e-02  3.74723524e-02
  -2.86388427e-01 -2.19239667e-02 -1.24754228e-01 -1.25823822e-02
  -2.11996570e-01  3.16229113e-03  1.89544931e-02 -1.53186182e-02
  -1.88304201e-01 -2.05245707e-02  5.76082803e-02 -3.89753580e-02
  -5.11070378e-02 -1.30556822e-02 -3.72923873e-02  7.79049173e-02
   2.34397817e-02  2.57122125e-02 -5.68217076e-02 -4.22320008e-01
   5.49481623e-02 -2.18241978e-02 -1.13655329e-01 -2.09588464e-02]
 [ 3.81870121e-02  7.28547350e-02  5.86502887e-02  2.67314333e-02
  -2.68681198e-01 -1.07059861e-02 -1.71514913e-01 -2.63742842e-02
   2.65023820e-02 -1.88191924e-02  2.70539038e-02 -1.18599504e-01
   1.66180089e-01  2.42743995e-02 -2.82658432e-02 -5.69788590e-02
  -3.47183734e-01 -4.13271971e-02 -4.19021398e-02 -1.13554243e-02
   5.41973934e-02 -4.51751612e-02  5.47859333e-02  1.38739403e-02
   5.20600826e-02 -4.88508539e-03 -9.94471535e-02 -6.79335967e-02
  -4.82712314e-02 -9.37731192e-03 -3.73559967e-02  1.55956939e-01
  -2.26790398e-01 -1.04671001e-01 -5.29223196e-02 -8.16217735e-02
  -7.94060454e-02 -1.79931879e-01  4.47224304e-02  1.12949088e-01
  -6.93570590e-03 -1.43036515e-01 -5.93806207e-02  1.60868804e-03
  -1.75101198e-02  8.56746361e-02 -9.23462361e-02 -7.80598819e-02
  -9.20603126e-02 -3.13398875e-02 -1.72397882e-01  1.13264464e-01
   8.72259289e-02 -1.42801821e-01 -4.52940017e-02 -2.98187643e-01
  -5.91785684e-02  7.04546422e-02  7.57015217e-03 -2.07575038e-02
   5.31626356e-05 -9.73149538e-02 -2.00506300e-02  1.04931965e-02
  -4.07625586e-02  6.55396236e-03  6.80568069e-02 -2.05192015e-01
   1.49920523e-01 -1.74234249e-02 -9.43500083e-03  6.38449267e-02
  -3.73307616e-02 -5.36841117e-02  8.57316423e-03 -1.25132993e-01
  -7.49309510e-02 -1.50173068e-01 -2.98593882e-02  1.18872244e-03
   3.18494476e-02 -2.76278518e-02 -2.42811814e-02  6.33906573e-03
  -7.22528547e-02  2.26422548e-02 -1.08789377e-01 -1.21511646e-01
  -1.51830688e-02 -4.12271768e-02 -1.24298252e-01 -2.22912550e-01
  -3.58405262e-02 -2.54689362e-02 -2.36285739e-02  2.86165308e-02
  -3.79725471e-02 -2.19746269e-02 -1.48767263e-01  8.33005831e-02
   1.60423908e-02  4.68681604e-02  6.28719255e-02  3.97663713e-02
  -2.93323189e-01  5.15505001e-02  1.04295323e-02 -9.33439806e-02
   5.26261814e-02 -2.56291982e-02  5.48678488e-02 -2.47491477e-03
  -8.98752548e-03 -4.44411896e-02 -7.48467818e-02  1.99560329e-01
  -3.19236405e-02  4.33795191e-02 -3.61296907e-02 -2.89078504e-01
  -4.59706113e-02 -4.64881100e-02  3.83344740e-02  1.26644641e-01
  -1.49020245e-02 -2.76625827e-02 -1.79052919e-01 -5.94697520e-02]
 [-2.29584128e-02  2.58829538e-02 -5.29432148e-02 -2.55394310e-01
  -3.32589820e-02  5.19784689e-02 -2.38639470e-02  1.63623765e-01
   8.00519623e-03  2.72239447e-02 -2.64284968e-01  1.02187814e-02
  -4.95536514e-02  5.62084951e-02  1.55175388e-01 -5.89027666e-02
   1.04248360e-01 -5.02709486e-02 -4.40833792e-02 -2.69186735e-01
  -7.23221749e-02 -1.60426237e-02 -3.68074551e-02 -7.05122063e-03
  -3.77852209e-02  9.57674719e-03  5.31669930e-02 -5.68818860e-02
  -1.11992829e-01  3.29964198e-02 -5.35665564e-02 -6.10668473e-02
   8.05086643e-02 -6.33596405e-02  9.84833017e-02  1.43964961e-02
   6.91121146e-02 -3.56631309e-01 -1.89698432e-02  2.35662349e-02
   2.34369576e-01  4.52154176e-03  4.30652723e-02 -4.50798310e-02
   6.69378322e-03  1.26481906e-01 -1.48779685e-02 -1.86483696e-01
   5.86099364e-02  8.11442956e-02 -1.03302851e-01 -2.75323629e-01
   4.44069654e-02  7.08073331e-03  5.20962402e-02 -2.79156327e-01
   1.49737392e-02 -4.75727580e-02 -6.84026033e-02  6.33029938e-02
  -5.62146865e-02 -4.81118150e-02 -3.11934780e-02 -4.19627763e-02
   4.40762006e-03  1.41656806e-03  3.27454582e-02 -1.81665331e-01
   1.12846553e-01 -4.43067439e-02 -6.77984394e-03 -2.55540460e-02
  -7.37109408e-02  3.54243442e-02 -1.47756681e-01  1.35904821e-02
   1.21181488e-01  1.02254525e-01 -4.10429507e-01  4.09206897e-02
  -9.08587947e-02  9.48432088e-03 -3.98425609e-02 -4.61354479e-02
  -4.94039617e-02 -2.19303388e-02 -1.39279440e-01 -7.87435472e-03
  -8.73652939e-03 -4.17281985e-02 -1.56719685e-01 -2.21155599e-01
  -5.26695251e-02 -9.75740477e-02 -6.88705444e-02  1.70041379e-02
  -4.50572930e-02  3.82699212e-03  1.82084981e-02  1.12109087e-01
  -7.72283897e-02  3.99861299e-02  2.49828883e-02 -3.28524113e-02
   1.47282094e-01 -4.93196361e-02  5.00300974e-02 -1.16631575e-01
   1.36139635e-02  1.22224446e-02  9.21695400e-03  1.17885806e-01
   4.01420170e-04 -6.51145205e-02  5.20715266e-02 -1.57729927e-02
  -5.96809536e-02  1.72908809e-02  2.78910436e-02  3.43929678e-02
  -6.64312989e-02  5.76977059e-03 -2.81426888e-02 -2.06374273e-01
   2.78936923e-02  2.83195823e-02  9.76874027e-03  4.17124480e-03]
 [ 5.85532710e-02 -1.12773189e-02  2.01533213e-02 -4.69158664e-02
   5.91869727e-02 -4.57577296e-02  9.45933238e-02  4.43330333e-02
   3.72777134e-02  9.95681528e-03 -7.78246671e-02  9.19840410e-02
   1.72748312e-01 -7.11433515e-02  8.91115591e-02 -5.61658107e-02
  -2.19594151e-01  3.74815129e-02  7.54188839e-03  4.10872465e-03
  -7.26676285e-02 -1.10015832e-01 -6.79284409e-02 -1.49586182e-02
   2.10190043e-02  6.51951954e-02 -1.53201997e-01 -7.80570731e-02
  -5.94336651e-02  1.31517872e-01  2.83337031e-02  1.34690389e-01
  -5.90367205e-02 -1.14111453e-02  2.16165874e-02 -1.80077385e-02
  -2.42497608e-01 -1.16253085e-01  4.70187776e-02 -7.27927536e-02
   1.44387618e-01  2.45091751e-01 -1.65629778e-02  4.56520543e-02
  -4.77973260e-02 -5.85949756e-02  9.42192897e-02 -1.07548408e-01
   1.56038955e-01 -2.57667471e-02 -1.34411111e-01  7.57200718e-02
  -9.86782759e-02  7.44907185e-02 -5.57438796e-03 -7.77545571e-02
  -6.42442107e-02 -5.39843068e-02 -2.47413423e-02  4.78965305e-02
  -6.09128783e-03  1.15003742e-01  3.14872637e-02  6.60726875e-02
   1.78168211e-02  1.36898514e-02 -4.76303184e-03 -2.19328776e-01
  -7.07133999e-03 -2.31626034e-02  4.52550985e-02 -1.62130728e-01
  -1.94869712e-02 -3.05165853e-02 -2.38165811e-01  1.70479000e-01
  -2.18146816e-01 -3.33157592e-02  2.98008658e-02  9.86706391e-02
   1.81613564e-02 -1.20056150e-02 -7.74092823e-02 -3.63857206e-03
  -9.25734341e-02 -1.37411794e-02  2.56815441e-02 -3.35356742e-02
   3.79557014e-02 -5.59114851e-02  6.99070096e-03 -2.39407524e-01
  -4.74025570e-02 -6.82683811e-02 -6.08833581e-02 -6.94621578e-02
   3.54570448e-02 -1.74884014e-02  2.56560966e-02 -8.42857063e-02
  -1.04824209e-03  3.11051488e-01  2.55746115e-02 -4.57424074e-02
  -3.43278915e-01 -2.22041588e-02  1.37681127e-01  7.43571967e-02
  -2.42627915e-02 -5.20760678e-02  6.48515113e-03 -1.13083469e-02
   8.66695195e-02  1.26730427e-02  7.36777484e-02 -1.55158769e-02
  -1.52390942e-01  5.58115589e-03  1.42235309e-02 -1.20433629e-01
   3.55801657e-02  2.53342111e-02  2.20434624e-03  2.34610792e-02
   5.86039212e-04  3.92806754e-02  1.81631312e-01 -3.09012290e-02]
 [ 6.44317865e-02 -2.67864205e-02 -5.17138327e-03  1.18844219e-01
  -1.21542104e-01 -4.36174162e-02  1.07069075e-01  7.51672015e-02
  -4.54507135e-02  1.76815186e-02 -1.28709048e-01  2.97380704e-02
   1.28333896e-01  6.09836653e-02 -2.33470395e-01 -2.55284738e-03
   2.92729825e-01  4.04445939e-02  4.41233888e-02 -2.57154983e-02
  -4.81838100e-02 -1.04585811e-02  1.06423393e-01 -4.87406105e-02
   3.52785140e-02 -1.59023553e-02  5.19006439e-02 -3.02254528e-01
  -9.08647943e-03 -3.02076966e-01  1.05590960e-02  4.64604571e-02
   1.12772591e-01 -6.04138933e-02  3.87392603e-02 -5.97536713e-02
   1.43596027e-02 -5.35061099e-02  2.65531917e-03  1.36255496e-03
  -1.76079106e-02  4.93499935e-02  2.57353559e-02 -5.75146042e-02
   1.73028074e-02 -8.51467773e-02  3.92896496e-02  5.50539717e-02
   1.87502101e-01 -2.12546214e-01  7.80206770e-02  5.37125655e-02
  -1.43115193e-01 -2.01774780e-02 -6.51253834e-02 -1.15517646e-01
   4.87964377e-02 -5.10231126e-03 -2.55146567e-02 -1.31123990e-01
  -1.07371882e-02 -8.23604763e-02 -7.59891421e-03 -6.36098832e-02
   5.98983616e-02  3.39447334e-02 -4.96544018e-02 -1.25387371e-01
  -2.05365464e-01 -3.59367542e-02 -2.97604185e-02 -1.58691853e-01
   3.03094983e-02 -2.01277435e-04  6.41116425e-02  6.38954639e-02
  -2.01902315e-01 -3.15466166e-01 -6.22564778e-02 -1.73290983e-01
   4.17128280e-02 -6.45271614e-02 -3.49502824e-02 -2.27559190e-02
  -8.83554667e-02  4.70830016e-02 -1.43809831e-02  1.70292839e-01
   9.56477225e-03 -3.24622206e-02  2.73448199e-01  4.27228659e-02
  -7.07557201e-02  4.72323447e-02  3.75768393e-02  1.54722510e-02
  -3.65604907e-02  3.21021937e-02 -1.24984402e-02  1.48491666e-01
   5.00640133e-03  3.63887362e-02 -5.49830869e-03 -2.19198316e-03
   6.30986989e-02 -1.01067666e-02 -1.74411193e-01 -3.04745999e-03
   1.80958256e-01 -7.43628899e-03 -5.61984396e-03 -3.27721447e-01
   1.04689971e-02  2.52731163e-02  2.70160530e-02 -1.27665848e-01
  -5.72924875e-02  3.55715305e-03 -6.10623881e-02  1.58390433e-01
   2.83101480e-02 -3.61464731e-02 -6.52454123e-02 -1.18941993e-01
  -3.98274325e-02  8.92090797e-02  1.14030614e-01  4.45729308e-02]
 [-4.70845886e-02  1.03440629e-02  3.46296467e-02  1.93903279e-02
  -7.32233152e-02 -9.09576192e-03  1.14795692e-01 -1.32500574e-01
  -3.44867520e-02 -5.20144068e-02 -3.02732378e-01 -1.68163255e-01
   5.89576513e-02  3.74266170e-02  3.04648485e-02  2.91525517e-02
   2.63981521e-01  1.05233034e-02  3.42674963e-02 -1.22358441e-01
  -5.38053438e-02 -3.75529602e-02 -1.31003827e-01 -2.50277612e-02
  -1.98449884e-02  1.63792893e-01 -6.70116022e-03  9.23079550e-02
   5.80106191e-02  3.53528783e-02  3.45823653e-02 -3.06360900e-01
   2.33147323e-01 -8.93631577e-03  3.04397792e-01  4.32241037e-02
   2.25006808e-02 -4.40458255e-03 -4.94310483e-02 -6.48079440e-03
  -1.22316582e-02  1.38088241e-01  3.27885188e-02  5.08802049e-02
  -4.79567796e-02 -1.22673884e-01 -6.54867664e-02 -1.12523109e-01
   3.93088385e-02 -4.79612276e-02 -1.70182258e-01  3.12916249e-01
   7.13081583e-02 -9.20336545e-02 -2.60499958e-03 -6.83609471e-02
   4.62596752e-02 -3.63045149e-02 -3.19860526e-03 -1.87334809e-02
  -8.66971503e-04  1.72608539e-01  5.13128936e-02  3.98564450e-02
  -3.18161100e-02  4.84695239e-03 -5.43567399e-03  7.99556635e-03
  -2.99801696e-02 -2.76320558e-02 -5.34858815e-02 -1.42650574e-01
  -3.91233265e-02  1.50605347e-02  1.60436213e-01  6.66916668e-02
  -5.23405324e-04 -6.82881325e-02 -1.92495063e-01 -1.23927452e-01
  -1.08418293e-01 -6.04289025e-02  1.02497905e-01  2.86455415e-02
   8.92150626e-02 -1.17416881e-01 -1.17084838e-01 -9.54064503e-02
  -5.34792729e-02 -5.49019687e-02 -4.54342775e-02 -2.46872827e-02
   8.27582777e-02 -1.98253140e-01 -1.56354596e-04 -4.48222794e-02
   1.01912916e-02  4.61736321e-02 -9.40295458e-02  1.01921692e-01
   3.17235440e-02 -3.11435480e-02 -3.59542132e-03  2.78202221e-02
   2.75731057e-01 -7.97474664e-03  1.63734406e-01 -2.11618021e-02
   1.36115313e-01 -5.93288429e-02  4.03825454e-02 -1.52643239e-02
  -9.08309668e-02 -1.09214755e-02  3.20542790e-02  7.10703200e-04
  -4.80127754e-03 -1.65900625e-02 -3.52603570e-02  2.12838948e-02
  -2.41616787e-03 -4.17810678e-02 -4.76338118e-02  8.29149559e-02
   5.04315905e-02  4.01410386e-02  9.69302133e-02 -3.34250927e-02]
 [ 2.57807970e-02 -4.25107516e-02  3.58265918e-03  1.10315107e-01
   1.14187896e-01 -8.01215023e-02 -1.72248155e-01 -1.74054474e-01
   2.53458358e-02  1.57999564e-02 -4.91509167e-03  1.33189678e-01
  -8.06449726e-02  1.89820290e-01  4.80794273e-02 -2.48329826e-02
  -7.81414956e-02  2.40190215e-02  1.01009319e-02 -1.42513782e-01
   2.39387974e-02 -6.90543503e-02 -1.37384728e-01 -2.29365588e-03
   4.94567445e-03  8.20228308e-02  1.63061738e-01 -1.25691786e-01
   7.97956362e-02  1.84065819e-01 -5.99944033e-02  1.80263102e-01
  -5.91779873e-02 -3.24477442e-02  1.52043374e-02  4.20669205e-02
   7.16273710e-02 -1.65878665e-02 -1.69805353e-04 -6.61579845e-03
   9.52096358e-02  4.78254110e-02  2.13955250e-02 -5.66024072e-02
   4.56159897e-02 -2.50786066e-01 -5.36961518e-02  2.11813883e-03
  -1.62125379e-02  6.00006059e-02 -2.10679844e-01 -9.78674963e-02
  -6.18251972e-02 -7.32940622e-03 -2.35992111e-02 -3.45831364e-02
  -8.89125317e-02  9.46796685e-02 -5.11941575e-02  4.60659303e-02
   4.93526757e-02 -1.22961447e-01 -4.88065816e-02 -6.94761798e-03
   4.77317795e-02  1.51625946e-01  9.22158733e-02 -4.81395453e-01
  -9.30800885e-02  2.98750624e-02  1.59951281e-02 -1.93422630e-01
   4.62063402e-02  1.22243613e-02 -2.09061235e-01 -2.09237903e-01
  -8.14207047e-02  3.95349443e-01 -2.22222745e-01  6.43824488e-02
  -1.09804161e-01 -4.67125289e-02  1.86519288e-02  2.47438997e-03
   8.34465101e-02 -2.19265074e-02  1.07199185e-01  1.20788567e-01
  -7.52472803e-02  2.04439927e-02  1.58589818e-02  5.34300134e-03
  -4.69444506e-02  2.86956448e-02  3.62577215e-02  2.55671833e-02
   1.73283815e-02  1.63424760e-04 -2.56240100e-01  1.89185366e-02
   1.49846420e-01  3.48602012e-02  9.96603630e-03  5.82823157e-03
  -6.70431927e-02  5.03528723e-03 -4.30541998e-03 -6.89308941e-02
  -1.83167711e-01 -4.97805551e-02  1.92115493e-02 -3.76642682e-02
  -1.55717045e-01  7.07403664e-03  5.79685904e-02 -9.98933539e-02
   1.95167754e-02  4.23746631e-02 -3.64043415e-02 -1.28552951e-02
   2.11575925e-02  1.67473365e-04 -6.47618622e-02 -2.61803329e-01
   9.03567020e-03 -5.52232042e-02 -1.17294729e-01 -5.04519464e-03]
 [ 3.75150442e-02 -4.48630601e-02  3.98469307e-02  3.56068872e-02
  -2.63170391e-01  1.04125235e-02 -1.88543931e-01 -1.45476069e-02
   4.95796576e-02  2.53821351e-02  1.47747397e-01  1.52903954e-02
   4.09093983e-02  1.05107464e-01 -2.44178236e-01  2.83665881e-02
   2.78125773e-03 -9.81011614e-02 -3.92493829e-02 -5.63330278e-02
   2.79992074e-03  3.01453657e-02 -1.39601111e-01  3.08368895e-02
  -6.41869381e-03 -9.73895378e-03 -1.56193703e-01  1.40940130e-01
   3.43774147e-02 -2.51497626e-01 -1.05948649e-01 -4.30620313e-02
  -8.04237798e-02 -2.51540579e-02 -1.82992611e-02  4.78701368e-02
  -2.24924237e-02 -1.04489625e-01 -8.18993524e-02  1.06809571e-01
  -9.16670188e-02 -2.67267972e-01  3.00098956e-02 -5.79177067e-02
  -1.11710951e-02  8.16189721e-02 -2.11830270e-02  6.26802891e-02
  -3.63787338e-02  6.68340772e-02 -1.36355907e-01 -3.69021893e-02
   8.94815922e-02 -6.76420704e-02  8.32586549e-03 -7.67345354e-02
  -2.34522633e-02  2.37299688e-02 -6.66001439e-02  7.95152038e-02
  -1.47620477e-02 -2.26709116e-02  5.54810688e-02  2.57708435e-03
   5.69566786e-02 -1.07149169e-01  4.34710458e-02  8.23452417e-03
  -5.10607623e-02  5.04904315e-02 -5.26667088e-02  1.08270355e-01
  -9.88381729e-03 -5.39305732e-02  4.90857195e-03  2.53256094e-02
  -5.28146550e-02 -4.16219328e-03 -3.67926694e-02 -1.69120654e-01
  -1.03443168e-01 -1.55295897e-03 -1.70444697e-02  3.27514485e-02
   7.22087398e-02  4.05090628e-03 -2.80375276e-02  1.20853772e-02
  -4.71587852e-03 -5.53621724e-02 -8.52386355e-02 -1.23254368e-02
  -2.96219047e-02  3.60999592e-02 -1.66249201e-02 -4.18476900e-03
   9.90891457e-03 -2.90286969e-02 -5.61808841e-03  1.21372730e-01
  -2.37952941e-03 -1.05231345e-01  1.44519028e-03 -7.51072764e-02
  -2.84605116e-01  8.56185406e-02 -1.73043489e-01 -1.01945713e-01
  -2.78651658e-02 -9.12280381e-02  7.04293698e-03 -1.13481462e-01
   1.38231024e-01  4.60577458e-02 -3.31499651e-02  1.10936509e-02
  -1.08830303e-01 -9.00833532e-02  1.72018632e-02 -1.65448144e-01
  -8.20916146e-02 -8.78035128e-02 -3.37637290e-02  2.65937503e-02
   5.14163040e-02 -1.19167725e-02  1.27058253e-02 -3.38803530e-02]
 [-2.45939214e-02 -1.45804649e-02 -5.39518967e-02 -3.10080588e-01
  -4.11325544e-02 -3.06300931e-02  6.69412613e-02  5.89065166e-05
  -7.87476264e-03 -3.41863669e-02 -5.22922128e-02  1.18807100e-01
   5.04199862e-02  1.07839160e-01  4.15957533e-02 -7.06450045e-02
  -2.12403331e-02 -1.70404799e-02 -5.48663698e-02 -1.14519261e-02
   6.55640149e-03 -2.69444031e-03 -7.85674751e-02  1.10281417e-02
  -1.82282794e-02 -6.38619885e-02  4.67911549e-02 -3.16958100e-01
  -2.65176706e-02  8.33175797e-03 -4.96019386e-02  1.29886150e-01
  -8.78045037e-02  1.24277957e-02  1.59315631e-01 -1.00094154e-02
  -1.06212147e-01 -3.41868810e-02  3.85011546e-02  4.78744097e-02
   2.17510700e-01  2.17772186e-01  2.55391598e-02  2.74325721e-02
   2.15008156e-03 -5.33699989e-02  8.11636075e-03 -1.13721073e-01
   1.53432578e-01  7.16899335e-03  1.14147505e-02  1.09333824e-02
   3.05731166e-02 -1.02012187e-01 -7.23965093e-02 -2.49040172e-01
   2.78449580e-02  7.95117952e-03  1.20912297e-02  3.66048366e-02
  -7.87112489e-03  4.01352197e-02 -4.53695953e-02 -3.33804972e-02
  -6.37596101e-02  1.56372607e-01 -2.37130187e-02 -2.40148962e-01
  -1.94720477e-02 -6.79171309e-02 -2.96131168e-02  1.05915526e-02
  -8.27791914e-02 -1.90797076e-03  1.51113095e-02  4.06069420e-02
  -1.99422501e-02  1.13818288e-01 -7.42195249e-02  5.17607369e-02
  -1.24979369e-01 -4.44213813e-03 -1.39789551e-01 -5.03147431e-02
   5.59057146e-02 -4.53470228e-03 -9.40611660e-02 -2.87233200e-02
  -1.21142035e-02  1.42591223e-02  1.55729428e-02 -1.42476708e-01
  -7.36774728e-02 -8.84134844e-02 -1.33027304e-02 -5.99787682e-02
  -7.23010721e-03 -4.67165001e-02  1.11184875e-02  1.42945111e-01
   9.21184197e-02  9.33547169e-02 -5.12405718e-03  1.16528273e-02
   1.35106102e-01 -2.74689775e-02 -4.55731936e-02 -7.89178014e-02
   2.00982943e-01 -1.22726031e-01  3.59174982e-02  5.71753904e-02
   5.72970584e-02 -6.96944147e-02  3.45460624e-02  1.00330129e-01
  -5.13729453e-03 -5.45197949e-02  2.79024057e-02  3.23871709e-02
  -5.20171672e-02 -5.77602237e-02 -4.82632294e-02  7.05731213e-02
   2.21273396e-02 -2.52380744e-02  1.16092026e-01  2.55457982e-02]
 [-5.69832996e-02 -4.57631163e-02  4.26982753e-02 -1.08166605e-01
  -2.33976483e-01 -9.20217782e-02  1.92280319e-02 -3.09889019e-03
   5.06905131e-02 -5.87446019e-02 -1.45844012e-01  1.44805359e-02
   1.11686409e-01 -2.93279858e-03 -1.75594434e-01  5.30382022e-02
   4.64418158e-03 -2.94197854e-02 -4.51088212e-02  8.18905304e-04
  -6.07555546e-02  1.81311890e-02 -1.99889347e-01 -3.01468950e-02
  -5.20804971e-02  3.54852736e-01  4.32918742e-02 -6.68316381e-03
   9.81718898e-02  3.18533987e-01 -8.83757100e-02  1.09758943e-01
  -1.41042754e-01 -7.43145347e-02  1.89309299e-01 -9.30656772e-03
  -1.90262511e-01 -3.15173678e-02  4.53852303e-02  3.18676606e-02
   4.22990657e-02  1.62461773e-01  5.22733629e-02 -5.36701903e-02
  -5.25209941e-02 -1.11653060e-01 -1.80621240e-02 -9.35249683e-03
  -2.25465335e-02 -2.50023026e-02 -1.20729864e-01 -1.10258639e-01
  -1.49209648e-01 -6.90193623e-02 -1.78632198e-03  1.02520391e-01
  -1.84672587e-02 -4.41044644e-02 -3.90585437e-02  1.71925221e-02
  -5.74027114e-02 -6.68388084e-02 -7.69486977e-03 -3.63543909e-03
  -3.21045779e-02  1.87708497e-01  3.62122990e-02  8.95194486e-02
   1.08796977e-01  2.23934762e-02 -8.61581489e-02 -2.42955223e-01
   3.70891765e-02  2.57192813e-02 -1.35774732e-01 -4.80758306e-03
  -1.39449015e-01  1.29913032e-01  6.67720810e-02 -2.90790498e-02
   4.18310687e-02 -5.50947990e-03 -1.25454798e-01  1.20905908e-02
  -1.74181283e-01 -7.01724365e-02  1.91988715e-04  7.62953283e-03
   2.63671577e-02 -5.24241291e-02 -7.25721940e-02  9.89592224e-02
  -2.89506023e-03 -5.12412563e-02 -7.56070539e-02  5.16591519e-02
  -8.27516150e-03 -5.60348928e-02  5.71442470e-02  1.16597243e-01
   3.32652330e-02  2.89696962e-01 -1.22154541e-02 -8.38946626e-02
  -2.27169633e-01  7.41285563e-04 -2.77705528e-02  1.04359671e-01
  -9.22651216e-02 -4.26164083e-02  3.57492566e-02 -8.41438770e-02
   3.38342749e-02 -4.62122597e-02  1.26616687e-01 -8.30346048e-02
  -1.28125817e-01  2.42311675e-02 -5.82630709e-02 -1.55491456e-01
   5.88073619e-02 -1.22996345e-01  3.78684811e-02 -7.58634731e-02
  -2.64304560e-02  1.00577076e-03  2.59926796e-01 -6.22555315e-02]
 [-4.71436866e-02  1.63098553e-03 -2.77051888e-02  2.38289982e-02
  -2.08526313e-01  2.01871451e-02 -5.36488928e-02  5.29918075e-02
  -6.65262341e-02 -5.07566296e-02 -3.41400094e-02 -1.21603627e-02
   8.41386020e-02 -6.74094707e-02  9.35153514e-02  5.18525764e-02
   1.29299937e-02  6.71208426e-02 -4.19375561e-02  1.04300857e-01
   3.05273756e-02 -8.41073543e-02  6.70155957e-02  2.73031797e-02
   4.06182595e-02  1.04865529e-01  6.80659860e-02 -2.78292626e-01
   3.14555839e-02 -2.17399508e-01  9.50570554e-02 -1.46144316e-01
  -2.34174225e-02 -6.10469766e-02  4.16940153e-02 -6.84753526e-04
  -3.53711993e-02  6.79923873e-03 -2.13746727e-02  9.96822026e-03
  -1.77143902e-01  5.59227355e-02 -4.75841649e-02 -5.75777330e-02
  -6.79159015e-02  1.05692558e-02  8.90444741e-02  1.33685591e-02
   2.43375346e-01 -6.32686466e-02  6.69210451e-03  7.65394419e-02
  -2.46178452e-02 -5.14278486e-02  4.20676135e-02  9.90908518e-02
  -1.23120775e-03 -3.75208072e-02 -1.86642557e-02 -9.74067077e-02
   1.34495134e-02 -1.05347596e-01 -2.87772417e-02 -5.16807474e-02
  -2.19542496e-02  1.44684076e-01 -6.67408109e-02 -5.41798696e-02
  -4.02284898e-02 -5.87113500e-02  2.35106125e-02 -8.16522390e-02
  -5.52546605e-03 -5.13792671e-02  7.58242607e-02 -4.02336270e-02
  -1.13808684e-01 -1.55466154e-01 -1.26584873e-01 -2.35265836e-01
   2.63251294e-03 -1.58044267e-02  4.61853147e-02 -8.35812017e-02
  -5.94114698e-03 -1.14979679e-02 -3.15096863e-02 -1.93363409e-02
  -4.93186191e-02  5.05247852e-03  9.84687433e-02  7.24243522e-02
  -3.76950763e-02 -7.49792298e-03 -1.42261349e-02 -6.86380360e-03
   8.34513735e-03 -5.03799058e-02  1.62824675e-01  1.37238607e-01
   1.52491793e-01  2.00377107e-02 -1.10380017e-04  1.25533715e-02
  -4.25422424e-03 -1.08879879e-02  1.25265419e-02  6.67383778e-04
   6.48253737e-03  2.25134511e-02  2.25647390e-02 -4.01831776e-01
  -3.31590734e-02  3.95424478e-02  2.46088635e-02 -2.88918942e-01
   4.32072505e-02  2.11540088e-02  3.24536823e-02 -8.24155360e-02
  -1.77085437e-02 -6.77069277e-02 -6.73395321e-02 -8.56793970e-02
  -2.34336369e-02  3.70264500e-02  3.54431085e-02 -5.91645576e-02]
 [ 7.46169407e-03 -5.45524284e-02 -1.02851093e-02  1.51161298e-01
  -6.70967177e-02 -3.89167443e-02 -5.66534027e-02 -4.12494838e-02
   2.85555590e-02 -1.71781816e-02 -9.99923795e-02 -1.61964849e-01
   1.37085289e-01  3.56192552e-02  3.70231806e-03 -9.53997578e-03
  -3.31348856e-03  2.21664575e-03 -1.54670915e-02  1.74199745e-01
   4.93561290e-02 -9.61061120e-02 -6.72939941e-02 -3.68297361e-02
  -2.49670148e-02  9.44498405e-02  3.66967879e-02  1.23636601e-02
   1.82667121e-01 -4.67261747e-02 -1.04428669e-02  1.46562785e-01
   9.19189602e-02 -2.07104683e-02  2.17751607e-01  3.88227403e-02
  -6.27923757e-02  7.06521198e-02 -3.79310623e-02 -4.28664498e-02
   1.19647875e-01  2.72537507e-02  2.05798354e-02 -5.25267348e-02
  -1.63555741e-02  6.45035878e-02 -6.64824992e-02 -1.60619110e-01
   1.58407241e-02 -1.08869165e-01 -6.46053553e-02  8.87314901e-02
  -9.14436057e-02 -3.42824310e-03  1.28004039e-02 -4.90839668e-02
   1.11266067e-02 -5.64951897e-02 -2.87137330e-02  3.11921760e-02
   4.08656523e-02  1.53498441e-01  1.94791276e-02  1.98412668e-02
  -1.60477180e-02 -4.65730131e-02  9.53891221e-03 -1.25744268e-01
  -9.44279879e-02  1.23795802e-02  1.35883922e-03 -3.55089009e-02
  -4.47171740e-02  4.86594439e-02  8.69578496e-02  1.10869538e-02
   2.99786218e-02  3.60307656e-02 -3.07391603e-02 -2.86149103e-02
  -7.11982846e-02  4.95801568e-02  3.72311771e-02  3.38240229e-02
   3.80469672e-02 -8.45637247e-02 -5.14648296e-02 -2.08957847e-02
  -6.93677738e-02  9.30138957e-03 -1.91773307e-02  2.63635293e-02
  -4.87010181e-02 -1.93981230e-01  2.15883870e-02 -4.15502004e-02
  -3.66125889e-02  1.26518691e-02 -3.44356209e-01  2.49924622e-02
   5.32329977e-02 -1.30034722e-02  1.53934816e-02  1.84962116e-02
   1.47192210e-01  1.61903370e-02  2.18734041e-01  2.94221081e-02
   6.46571890e-02 -7.02772513e-02  1.97614301e-02 -6.68102801e-02
  -7.81716034e-03  1.79654527e-02  5.33790216e-02  3.75321880e-02
  -5.17692044e-02  1.04529867e-02 -7.06696510e-03 -7.11580515e-02
   2.45115813e-03 -3.24694738e-02 -2.91303471e-02 -4.88777272e-02
   3.32420431e-02 -6.87000453e-02  1.30096257e-01  3.43211107e-02]
 [ 3.37924846e-02  3.48788239e-02 -6.17984273e-02  2.79445499e-01
   2.38833442e-01 -2.96735857e-02 -3.36695164e-01 -6.39668927e-02
   1.41828647e-02  1.52378380e-02 -1.19339814e-02  5.92530780e-02
   1.96392555e-02  1.96472779e-01 -3.77328470e-02 -4.88821641e-02
  -1.67093962e-01 -5.01866601e-02 -3.74011546e-02 -1.38996035e-01
   3.25543433e-03 -8.04175213e-02  1.70761757e-02 -5.98778464e-02
  -1.08967931e-03  1.97453842e-01  9.24256966e-02  3.03962659e-02
   1.29764393e-01  2.67841905e-01  2.27834936e-02  2.19226286e-01
  -7.56163895e-02  2.45996770e-02  1.20047733e-01 -4.05813828e-02
   6.54683390e-04 -4.42866459e-02 -6.87504113e-02  4.29518186e-02
  -5.18063642e-02  5.10598235e-02  4.17908467e-02 -7.79642910e-02
  -1.20581817e-02 -3.26445639e-01 -2.18964815e-02  9.28519201e-03
  -1.89263090e-01  2.05249488e-02 -1.32577211e-01  1.72843114e-01
  -2.17522513e-02 -7.23842382e-02 -3.38834561e-02  1.48055255e-01
   3.50258946e-02  2.37567890e-02  5.96196502e-02 -5.93444593e-02
   5.50246841e-05 -9.06418487e-02  2.99209100e-03 -7.92273805e-02
  -2.51186416e-02  1.04798324e-01  6.33358732e-02 -3.20963651e-01
  -1.64480075e-01 -2.42887810e-02 -3.51513401e-02 -1.59615576e-01
  -5.17326929e-02  4.13173884e-02 -2.10784107e-01 -1.12881899e-01
   3.48950997e-02  1.70611501e-01 -2.30444044e-01  4.32154760e-02
  -1.60039857e-01  8.22740607e-03 -1.34318367e-01  3.22981477e-02
   1.94890156e-01 -2.41697002e-02  3.62356007e-02  1.55489355e-01
   5.22563607e-03 -4.80447710e-02  7.24619552e-02  1.26687437e-01
  -1.27504282e-02 -1.07386351e-01  4.53355014e-02  5.26103117e-02
   2.08386816e-02  4.57506552e-02 -3.07021379e-01 -1.39766380e-01
   1.86107323e-01 -1.21977530e-01 -1.92726981e-02 -3.70518789e-02
  -1.03443667e-01 -5.74241020e-02  3.58709507e-02 -4.53941189e-02
  -2.31848165e-01 -2.31339950e-02 -3.27779949e-02 -1.41805515e-01
  -1.78289101e-01  1.97496265e-04  5.66251390e-02 -5.51395863e-02
   4.60063852e-03 -2.23352425e-02  3.70374024e-02  1.15035549e-01
   1.50286481e-02 -1.03578344e-01 -2.47681756e-02 -2.06062973e-01
  -7.21344724e-03 -2.35166457e-02 -2.11386472e-01  4.92767803e-02]
 [-1.49627365e-02  5.39405048e-02  1.86491515e-02 -3.19492519e-02
  -2.07662269e-01 -6.65305182e-02  7.25458860e-02 -1.55457586e-01
  -3.09944842e-02 -2.11236579e-03  1.28212452e-01 -8.37769061e-02
   3.82960141e-02  6.04822673e-02 -8.78694132e-02  5.85808605e-03
   2.79299412e-02 -5.06902635e-02  4.53150049e-02 -9.03331861e-03
   7.92948902e-03 -6.71494529e-02 -2.62505040e-02 -6.06252514e-02
   1.77249014e-02  7.98948556e-02 -2.09100708e-01  1.51306152e-01
   1.70243695e-01  7.49921054e-03 -8.91856924e-02  7.19397217e-02
   7.21284449e-02 -8.11779872e-02  2.23821737e-02 -7.72233903e-02
   1.12880938e-01 -1.28838584e-01  4.51295078e-02  1.63472742e-02
  -1.75240319e-02 -6.32978007e-02 -4.70166579e-02 -6.62460402e-02
   5.93255274e-02  1.20508589e-01 -4.07367572e-02  3.24164592e-02
   1.65383026e-01 -7.36491233e-02 -2.12359391e-02  5.56302108e-02
   4.68695797e-02 -3.61017399e-02 -5.66129200e-02 -2.14766964e-01
   4.51391600e-02 -6.62779808e-03  2.20461972e-02  4.08028252e-02
   1.63444970e-03  1.71793066e-02  1.91435160e-03  3.37909050e-02
  -2.10750550e-02 -9.10069197e-02 -8.18528794e-03  8.07878897e-02
   7.91112520e-03  5.08780777e-03 -5.97334206e-02  7.69350082e-02
  -4.93639149e-02  5.98072559e-02  3.80359916e-03 -6.99393824e-02
   2.18637567e-02 -1.33450150e-01 -3.85950245e-02 -4.72360961e-02
  -1.26658499e-01  1.79504510e-02 -3.09338197e-02 -7.69301131e-03
   1.31170331e-02 -5.79409562e-02 -1.14263274e-01 -1.16058409e-01
  -3.10957432e-04 -4.54245061e-02 -4.73138243e-02 -3.39044333e-02
  -4.67002727e-02 -2.43722294e-02 -7.49065056e-02  4.42421213e-02
   1.51341930e-02  3.14505771e-02 -4.12329175e-02  1.95329607e-01
   4.97154556e-02 -5.50220236e-02 -1.00408616e-02  5.03761098e-02
  -3.18236044e-03 -3.24173234e-02  1.50478529e-02 -1.06383003e-01
  -8.59794170e-02  7.39158364e-03 -3.71046625e-02 -8.01832899e-02
   2.13051081e-01 -5.87543286e-02 -9.80982929e-02  9.93475690e-02
  -7.60399699e-02 -4.28133681e-02 -5.24120145e-02 -2.22025931e-01
  -1.13071920e-02 -1.16091952e-01  4.03199792e-02  1.94732826e-02
   7.69572407e-02 -2.11285241e-03  1.47703320e-01 -5.09516373e-02]
 [-5.26343770e-02 -2.68764477e-02  3.65486890e-02 -1.23094067e-01
   1.17607205e-03  2.83993408e-02  2.59889048e-02  7.84370452e-02
   2.14199219e-02  6.85989344e-03 -5.28918542e-02  9.51575814e-04
   5.99520467e-02  7.59196207e-02 -1.94203004e-03 -6.19145576e-03
  -3.21267694e-02 -5.44682071e-02  1.32238222e-02  5.38625866e-02
  -7.02658817e-02 -8.28778520e-02 -6.57988861e-02 -2.06686687e-02
  -3.19834612e-02  9.07447040e-02  1.15868762e-01 -2.68513501e-01
   4.41046283e-02  1.44878151e-02 -5.26732616e-02 -3.34345251e-02
  -4.78927083e-02 -7.02888221e-02  5.54488041e-02 -5.36265932e-02
  -3.92946228e-02 -1.11457296e-01  2.94959098e-02  2.81644464e-02
   2.01631695e-01  1.49948671e-01  4.58676293e-02  7.39557995e-03
  -4.51496728e-02  5.98746911e-03 -1.22540481e-01 -1.06205009e-01
  -4.86763604e-02 -9.25926566e-02  6.01749914e-03 -2.74998814e-01
  -2.19811141e-01 -1.03650063e-01 -3.10352966e-02  3.87747437e-02
  -4.74431701e-02  4.91092354e-02 -4.58338074e-02  9.27976519e-03
  -9.73836035e-02 -9.58883110e-03  3.89009081e-02 -2.34383401e-02
  -1.86334010e-02  1.62263155e-01 -2.24991236e-02 -1.41984612e-01
   1.99091230e-02 -3.14725637e-02 -3.98567505e-02 -1.37904420e-01
  -9.30916443e-02 -2.86237262e-02 -4.36780863e-02  5.66279069e-02
  -3.28178443e-02  2.75199443e-01 -3.28696780e-02  8.30231681e-02
  -1.35153666e-01 -4.83454429e-02 -1.66146662e-02  2.53494233e-02
  -2.54566222e-02 -2.68351603e-02 -7.78004676e-02  1.49686104e-02
  -6.44238070e-02 -1.58651662e-03  1.61806606e-02 -2.70155519e-02
   3.07082776e-02 -1.11695103e-01 -5.85251004e-02 -4.73244637e-02
   2.00818256e-02  5.19732898e-03 -1.31074384e-01 -6.40825629e-02
   9.84588638e-02  3.13102305e-02 -1.16590261e-02 -4.36996482e-02
   3.29265222e-02  1.93483138e-03  1.36531383e-01 -4.02332749e-03
   1.65891387e-02  4.88413172e-03 -4.71910052e-02  1.11476287e-01
  -8.44415650e-02 -1.84126664e-02  9.84803885e-02 -7.34180138e-02
  -4.18382883e-02 -3.18504609e-02  1.73469894e-02  1.05723754e-01
  -5.87731786e-02 -8.98434222e-02 -1.99175123e-02 -1.44863501e-01
  -5.71553931e-02 -4.09953296e-02 -3.69435474e-02  4.15215306e-02]
 [-1.11003476e-03  4.44855355e-03 -3.28429863e-02 -7.76552558e-02
  -9.51943025e-02 -1.41502768e-01 -3.57761458e-02 -1.55266806e-01
   6.25584507e-03 -2.13606600e-02 -2.47694790e-01 -4.92078438e-02
  -2.33158190e-02 -5.13522439e-02 -9.32353511e-02 -9.18510556e-03
  -1.09657876e-01  2.53365561e-03 -1.71476398e-02  6.54455498e-02
  -7.34548420e-02 -5.95831834e-02 -2.90576309e-01 -6.10866845e-02
  -2.49066390e-03  1.84940994e-01 -1.42927960e-01 -5.02017001e-03
  -1.06360652e-01  1.31380677e-01 -1.84920635e-02  1.10555984e-01
  -1.02756016e-01 -3.25987339e-02 -4.54610027e-02 -4.02354151e-02
  -5.04872650e-02 -4.01932597e-02 -6.98361620e-02 -3.43206860e-02
  -1.21496478e-03  2.24524379e-01 -3.05575579e-02 -2.07467433e-02
  -1.47987464e-02 -1.48303598e-01 -4.47595567e-02 -3.41069028e-02
   4.43049408e-02  6.01609908e-02 -1.14568427e-01 -2.16437608e-01
  -4.29599136e-02 -1.89077139e-01 -1.52260493e-02  4.59701382e-02
  -6.72741756e-02 -2.45568855e-03  5.70794288e-03 -5.30505925e-02
   2.97021903e-02 -2.00567469e-02 -4.31656875e-02  2.10543722e-02
   6.25598058e-03  1.29782557e-01  4.93521579e-02 -5.06710820e-03
   9.17305052e-03 -4.53527160e-02 -5.75018711e-02  3.84095497e-02
  -1.60852056e-02  3.42099518e-02 -2.54771054e-01  1.76168010e-02
  -1.58325925e-01 -1.36589915e-01 -1.85508162e-01  1.40704170e-01
   1.38525516e-01 -8.05820525e-02 -7.11917207e-02  1.58996601e-02
   1.76508114e-01 -5.02805971e-02 -6.95219263e-03 -1.34916767e-01
  -4.44691703e-02 -6.97376207e-02 -7.13841468e-02 -3.77860330e-02
   2.81361286e-02  2.50550103e-03 -4.07510363e-02 -5.47004975e-02
   1.02858488e-02  4.52203385e-04 -2.92945541e-02 -1.34323716e-01
  -1.15915127e-01  1.19937435e-01 -5.58643155e-02 -9.85097419e-03
   2.75094230e-02 -1.12501533e-04  1.23591647e-01  2.25679148e-02
  -8.72329101e-02 -7.33511476e-03  9.97882988e-03 -8.11322927e-02
   1.55018404e-01 -1.14278616e-02  6.99478313e-02 -9.58841369e-02
  -3.48244272e-02  8.15441087e-03 -4.66041788e-02  1.01677574e-01
  -6.15393557e-02 -5.04569970e-02  4.33176989e-03 -3.05062290e-02
   2.61748079e-02  3.08006238e-02  2.64074862e-01 -4.33857888e-02]
 [ 1.12538422e-02 -8.09892453e-03 -5.80764115e-02  1.63791794e-02
  -1.50846988e-01  5.81881963e-02  5.89014664e-02  6.50843158e-02
   4.29482237e-02  1.96278766e-02 -5.44031267e-04  5.85172623e-02
  -5.22387773e-02 -1.43916771e-01 -1.49776042e-02  7.14100897e-05
  -2.29057688e-02  9.43935197e-03 -2.68012062e-02  4.32424620e-02
   4.98557240e-02  3.90727539e-03 -1.92806236e-02 -3.40162497e-03
   1.57252476e-02  8.06972533e-02  1.07612656e-02 -9.10361558e-02
   8.18509236e-02 -1.42529950e-01  7.42644370e-02  1.72288697e-02
   1.58053681e-01 -1.19024329e-01 -1.45356893e-03 -3.36547047e-02
  -1.09365746e-01 -3.79223041e-02 -2.76628621e-02 -2.41894666e-02
  -1.39852643e-01  1.31721541e-01  2.02173367e-02 -3.31508778e-02
  -5.76264411e-02 -9.78405848e-02  7.89267421e-02 -6.55378997e-02
   5.61662130e-02 -1.46803245e-01  5.27242459e-02  4.28179130e-02
  -3.11547127e-02 -7.76414424e-02 -3.47794443e-02  2.86293756e-02
  -1.19113978e-02 -2.14154422e-02  4.17944565e-02 -5.49105108e-02
   2.53039878e-02 -1.05656117e-01 -5.62805980e-02 -7.60168135e-02
  -2.26492621e-02 -1.76679976e-02 -5.07017672e-02 -3.18828598e-02
  -4.93716672e-02  5.31526953e-02 -1.69073582e-01 -7.15480819e-02
  -1.18296258e-02  2.35188808e-02 -9.49770063e-02 -1.83972284e-01
   3.30688320e-02  4.05037142e-02 -7.68411905e-02 -1.58948794e-01
   5.27457930e-02 -9.01179910e-02 -4.98913229e-02 -4.13508750e-02
   2.54935771e-01  2.22232826e-02  1.53009398e-02  7.79986456e-02
  -3.47815976e-02 -4.38425057e-02  1.65541068e-01  1.15385046e-02
  -2.94797868e-02  3.33754048e-02 -5.24534471e-02  7.56726367e-03
   5.69068044e-02 -4.99178171e-02  9.67102572e-02  5.66141531e-02
   4.13039252e-02 -9.38296318e-02 -2.52276979e-04  2.60041654e-02
  -5.94644062e-02  7.68596157e-02  3.07471491e-02  6.17048070e-02
   1.69707090e-01 -1.15897981e-02  9.52298520e-04 -3.07130814e-01
  -5.41976579e-02  4.64091785e-02  5.82099855e-02 -1.02743372e-01
   6.93232566e-02  3.30966488e-02  3.97484973e-02 -6.77602142e-02
  -2.55481116e-02 -2.14875266e-02  3.75589579e-02 -7.62711018e-02
   3.68095264e-02  5.58584630e-02  9.83261317e-02 -3.44651863e-02]
 [-7.06492290e-02 -1.34067647e-02 -2.42371596e-02  2.08337530e-01
  -9.84895602e-02 -6.72017336e-02 -1.14279285e-01 -1.55868322e-01
   2.84235738e-02 -1.43658879e-04 -1.76382080e-01 -3.37441266e-02
   1.20034575e-01 -4.68922742e-02  1.49330348e-01 -7.19170691e-03
  -3.83133776e-02 -2.93515995e-02  3.36600728e-02 -1.60324052e-02
   4.14888933e-02 -6.05992973e-02 -2.91715213e-03 -8.67962390e-02
   2.04132497e-03  2.26426005e-01 -4.96200360e-02 -5.97912148e-02
   2.35841379e-01 -7.18223527e-02  5.86031601e-02 -1.64081007e-02
  -6.27280325e-02 -6.22936375e-02  1.10238746e-01  1.31157963e-02
   1.14001095e-01 -2.89088517e-01 -8.78809253e-04 -3.22905742e-02
   1.06643349e-01 -5.09092631e-03 -5.18118665e-02  2.33747195e-02
  -3.03740148e-02 -1.60157785e-01 -3.41513716e-02 -2.54356325e-01
  -7.57053075e-03  2.89387498e-02 -9.28982869e-02 -1.71211794e-01
  -1.00456178e-01 -1.75377011e-01 -3.82432602e-02  1.10510074e-01
   5.60996123e-04 -3.98488902e-02 -3.64349931e-02  7.34932497e-02
  -5.71886152e-02  1.33094266e-01 -5.32285273e-02 -2.32184455e-02
  -6.07325844e-02  1.09377772e-01  1.12437308e-02  2.85838917e-02
  -6.48360401e-02 -5.91522865e-02 -2.98623368e-02 -1.56976923e-01
   9.01667681e-03  2.57167444e-02 -4.14695516e-02  6.05466357e-03
   5.79200760e-02 -4.78892177e-02 -6.09976724e-02 -1.29192859e-01
  -1.56984434e-01 -1.16158305e-02 -1.51228188e-02 -2.42745411e-02
   7.19100982e-02 -2.82859579e-02 -1.51345255e-02 -5.25668561e-02
  -9.80901197e-02  4.36119176e-02 -2.93939337e-02 -6.10721484e-02
  -3.56110744e-03 -6.18683286e-02  3.06154322e-02 -6.24446385e-02
  -4.74101789e-02 -4.72780615e-02 -2.87190884e-01  1.10930651e-01
   1.45885617e-01 -1.77321956e-01  4.80959043e-02 -3.84303331e-02
   7.99827185e-03 -4.55066487e-02  1.21222101e-01 -1.10349916e-01
   8.78741294e-02  3.20656411e-02 -6.75922185e-02 -1.98949888e-01
  -1.25938267e-01  1.29351607e-02  5.27054220e-02  3.12984064e-02
   6.19778596e-02 -5.88138215e-02 -1.39366537e-02 -6.64276630e-02
  -3.79787795e-02  1.50184324e-02  1.08836060e-02 -7.70117640e-02
   4.29603271e-02 -3.75036038e-02  5.19937910e-02  2.68932693e-02]
 [ 2.00081877e-02  6.59286510e-03 -1.99165363e-02  1.37209296e-01
   2.05820814e-01 -1.27428427e-01 -2.30241671e-01 -4.06492129e-02
   3.32462117e-02  1.88948587e-03  1.36287287e-01  1.03163779e-01
   5.89893535e-02  1.23254076e-01  1.37055755e-01  1.50988996e-02
  -2.09578052e-01  5.07073477e-02 -1.05393422e-03 -1.59465089e-01
  -3.38195637e-02  2.29018787e-03 -1.11627333e-01 -5.73001765e-02
   3.94729339e-02  2.63373673e-01  1.41807795e-01  1.03996076e-01
  -2.46196650e-02  7.37403184e-02 -5.11982441e-02  2.34866560e-01
   9.62429447e-04  6.19758712e-03  1.52150262e-02 -2.50376668e-02
   1.53359026e-01 -1.15284938e-02 -1.49667384e-02  7.84206111e-03
   1.87413618e-01  1.93046052e-02  3.46159413e-02  1.54779851e-03
  -5.71354516e-02 -1.80663839e-01  1.18628629e-02 -3.76669504e-02
  -1.96372345e-01 -2.73946151e-02 -2.36099347e-01  1.55079961e-01
  -2.35439278e-02 -6.60220236e-02 -4.47083935e-02 -1.53203616e-02
   3.28867398e-02  4.59281215e-03  1.20971743e-02  9.32139158e-03
   2.87056454e-02 -1.58030182e-01 -1.97063331e-02  9.31669399e-03
   1.80225000e-02  2.05208883e-01 -1.37243913e-02 -1.73129767e-01
  -2.55563390e-02 -3.59839723e-02 -1.55526996e-02 -1.66606337e-01
   1.12620741e-02 -4.67838347e-03 -5.96401170e-02 -6.79384843e-02
  -4.27902304e-02  2.53143549e-01 -3.11746776e-01  8.63280296e-02
  -1.45024702e-01 -2.94069611e-02 -5.11269569e-02  1.82400644e-02
   2.35996954e-02 -6.28245100e-02  9.77568030e-02  2.43607312e-02
  -3.27655151e-02 -5.22756483e-03  6.95207641e-02 -9.44024920e-02
   1.68789905e-02 -7.45253563e-02  4.07983363e-02  4.40987460e-02
   2.81934906e-02  3.33796367e-02 -3.79663587e-01 -3.13790478e-02
   8.75653774e-02 -2.81843185e-01  1.57917161e-02  2.72508711e-03
   1.86112877e-02 -2.15125140e-02  3.44412439e-02  7.81878829e-03
  -2.55706757e-01  2.59485561e-02 -5.70463687e-02  2.00833566e-02
  -6.79114312e-02 -2.64673103e-02  2.30532065e-02 -6.53093681e-02
   4.36682478e-02  5.10924384e-02  1.67291670e-03  4.24679331e-02
  -2.52069607e-02  2.91164815e-02 -4.08461615e-02 -2.26964429e-01
  -2.05742661e-02  8.88242666e-03 -1.40733674e-01 -2.58517731e-02]
 [ 8.62626731e-03  1.65906895e-04 -7.52746910e-02  7.99384639e-02
  -3.81112993e-01  7.23495409e-02  4.30117408e-03 -1.35667250e-01
  -7.57035380e-03 -7.17343241e-02  5.80878630e-02 -1.51134863e-01
  -1.61748100e-03  1.70264587e-01  1.27050858e-02  2.14702934e-02
   1.01362780e-01 -1.92099437e-03  4.39394936e-02 -6.53287172e-02
  -3.36732529e-02  1.25028025e-02 -1.90244004e-01 -1.96823236e-02
  -8.81280936e-03 -3.50112990e-02 -2.99429178e-01  1.36949807e-01
   2.13059530e-01 -1.56991675e-01  6.42812904e-03  1.58555478e-01
   1.44884288e-01 -2.52487157e-02 -3.04817478e-03 -3.10047138e-02
   5.03583699e-02 -2.06896830e-02 -4.73559871e-02  7.52468109e-02
  -1.82471290e-01  1.29860397e-02 -6.98391348e-04 -5.68519644e-02
  -3.04435864e-02  1.13323204e-01 -4.06461246e-02  7.83398151e-02
  -8.17586258e-02 -2.83005610e-02 -4.74405214e-02  1.99936196e-01
   1.27622038e-02 -1.16895668e-01  1.66975409e-02 -1.15845107e-01
  -1.89575125e-02 -1.29329422e-02 -2.93344376e-04  1.08993647e-03
  -3.40789631e-02 -1.80987120e-02  4.28903475e-02 -4.70638573e-02
   4.44703400e-02  2.54589692e-02  2.12853868e-02  2.86342595e-02
  -4.71688695e-02 -7.37537891e-02 -4.21607401e-03  7.59436637e-02
   4.39861938e-02 -2.94695199e-02 -1.87926507e-03 -1.21946469e-01
  -1.37821604e-02 -5.26169166e-02  5.04365284e-03  3.56744453e-02
  -1.45332187e-01 -5.76457195e-02  3.88090387e-02 -7.82284886e-04
   9.20977741e-02 -1.36800297e-02 -1.19445801e-01 -1.29198749e-02
  -1.00438073e-02 -6.62862733e-02 -1.00277551e-01 -1.05982788e-01
  -2.32847594e-02 -5.05224764e-02 -4.70169559e-02 -9.49089974e-03
  -2.75780000e-02  7.07062799e-03 -1.15654700e-01  6.74616639e-03
   1.01913147e-01 -1.04139268e-01  5.18374443e-02 -8.90054181e-03
   1.20097364e-03  6.92544580e-02 -8.07856172e-02  4.26114127e-02
  -3.27383131e-02 -7.33168377e-03 -2.61995867e-02  1.33976519e-01
   1.47775814e-01  3.21991593e-02  4.65551652e-02 -1.19125436e-03
  -3.54253985e-02 -6.18094616e-02 -1.90967768e-02 -1.37922913e-01
  -1.06464271e-02 -9.95256305e-02 -1.98813677e-02  9.57694575e-02
   7.70020932e-02 -2.03347299e-02  1.44471616e-01 -1.67564359e-02]
 [ 2.53955275e-02  4.11878191e-02 -5.78145161e-02  4.25767191e-02
  -9.58173871e-02 -1.76370908e-02 -4.85710725e-02 -3.04630380e-02
   1.78109284e-03 -1.06804224e-03 -1.29588082e-01 -1.96880437e-02
   1.10906698e-01  5.80082610e-02 -2.62832735e-02 -2.89621428e-02
  -3.98222059e-02 -5.60783409e-02 -6.16610497e-02 -2.57971752e-02
  -5.09448946e-02 -2.11286657e-02  4.67907190e-02 -6.06728382e-02
  -3.20261084e-02  8.31949562e-02 -4.39587468e-03 -1.90272108e-01
  -1.20142072e-01 -1.66137442e-01 -1.16237365e-02 -3.98518033e-02
  -1.36175811e-01 -1.25956073e-01  1.43870905e-01  4.72880043e-02
   2.25191370e-01  7.65445363e-03 -1.08988099e-02  4.44954745e-02
   5.36144227e-02  1.12211807e-02  1.01909647e-02 -2.65340041e-02
  -4.92019169e-02  4.90379632e-02 -8.09752196e-02 -5.63365519e-02
  -8.85201097e-02 -9.82322171e-02 -7.60473832e-02 -3.32304001e-01
  -1.82073321e-02 -1.68769881e-02 -5.27428016e-02  5.42973019e-02
  -2.09672432e-02  4.67144027e-02 -5.72980493e-02 -1.47336069e-02
  -5.96646741e-02 -4.41497304e-02  2.31010485e-02 -4.23879363e-02
  -4.86821271e-02  6.49856105e-02 -3.78717110e-02 -8.28912202e-03
   1.69553831e-02  1.18217403e-02 -3.66105810e-02  1.87861249e-01
  -7.17143044e-02  5.72201759e-02  4.80102887e-03 -4.60673496e-02
  -2.35289335e-03 -1.78261958e-02  9.89495963e-03 -6.84283748e-02
  -3.50892805e-02  4.00783531e-02 -9.59201083e-02 -1.69992242e-02
  -1.19806401e-01 -3.61614004e-02 -1.16735406e-01 -5.47657162e-02
   1.64486617e-02  2.16167923e-02 -9.67452154e-02 -1.19532876e-01
  -8.18866417e-02  9.91134811e-03 -8.62968154e-03  4.83020097e-02
  -4.94282432e-02 -3.22256535e-02 -1.11071073e-01  1.46306992e-01
   1.22849241e-01  1.72894858e-02  4.44341227e-02 -4.62316498e-02
   1.51983872e-01 -3.46363448e-02 -3.23492028e-02 -5.39188050e-02
   1.27223015e-01  4.78416085e-02 -3.77112627e-02  8.08178335e-02
  -7.92850181e-02 -6.26903474e-02  6.66526332e-02 -1.15241684e-01
  -3.68781574e-02 -7.59680346e-02  6.45936280e-03  7.59578645e-02
  -5.26234284e-02  4.21907045e-02  4.23086341e-03  3.90293263e-02
  -3.57270688e-02  1.11709703e-02 -2.26245746e-01  1.86948047e-03]
 [-4.70940657e-02 -3.36700715e-02 -3.26023623e-02 -1.34564221e-01
  -1.67179376e-01  1.24076180e-01  8.25108588e-03 -2.45463297e-01
   5.72524257e-02 -6.19125776e-02 -2.36263216e-01  9.23792198e-02
  -9.23172310e-02  8.45579710e-03 -1.31513095e-02  3.16568501e-02
  -1.06032930e-01 -5.94827905e-03  1.61931035e-03  3.18660676e-01
  -2.91417167e-03 -5.79839060e-03 -3.35190982e-01  4.07105591e-03
   2.36965101e-02  6.78562075e-02 -5.85596822e-02 -9.57480669e-02
  -4.20503207e-02  2.28928849e-01 -5.10217845e-02  1.04567662e-01
   9.58518386e-02  4.02238891e-02  1.32438853e-01 -2.49232315e-02
  -1.48683593e-01  1.06335334e-01 -5.35019450e-02 -1.67777725e-02
   8.39913115e-02  4.96259145e-02 -2.50612739e-02 -8.79509076e-02
   2.78654527e-02  1.65953547e-01  2.67678928e-02 -9.39671919e-02
   1.73487924e-02 -6.22035637e-02 -3.35389584e-01 -1.66271791e-01
  -2.58363128e-01 -2.13610187e-01 -7.13239238e-02 -1.33919567e-01
   1.77666657e-02 -3.93138044e-02 -2.03206912e-02  2.19080336e-02
  -1.31936194e-02 -1.29535615e-01  2.44148225e-02  8.55443627e-03
   1.41509739e-03 -3.40621024e-02  4.92383214e-03 -2.19357498e-02
   1.20690770e-01 -2.74618026e-02 -1.08360767e-01  1.39457434e-01
  -2.73965561e-04 -3.50724347e-02 -6.99986145e-02 -1.80577710e-01
  -1.51207194e-01  7.14789778e-02 -8.15069899e-02 -1.56123638e-01
  -5.67220114e-02 -1.05690565e-02 -9.41369608e-02 -8.10069963e-02
   2.68880115e-03 -7.24281669e-02  8.72273371e-02  2.47404695e-01
  -6.11809902e-02  3.05865519e-02  5.88446669e-02 -1.31400069e-02
   4.06473726e-02 -1.20851174e-01  1.05163269e-02 -8.29476044e-02
  -6.41893893e-02  1.29990783e-02 -1.15229361e-01 -1.17050380e-01
  -4.30649891e-03  2.39469588e-01 -2.77645569e-02 -4.07757647e-02
   2.93666720e-01 -7.65674263e-02  1.37392759e-01  1.22949012e-01
  -5.56549132e-02 -3.81171405e-02  3.79222594e-02 -1.90316781e-01
   5.99167086e-02 -4.74330783e-02 -8.48431140e-02 -1.81021914e-01
  -4.89237458e-02 -4.86353673e-02 -5.42260073e-02  3.15875784e-02
   1.54597666e-02 -3.41833365e-05  3.63541394e-02  5.98086640e-02
  -2.26873718e-02 -4.66151796e-02  8.68538767e-02  4.27696332e-02]
 [ 5.07890061e-03 -2.47085262e-02 -2.52813683e-03 -1.44744422e-02
  -1.78867936e-01 -5.57851745e-03  1.24663590e-02 -9.42651853e-02
   1.04173436e-03  3.44902389e-02  7.18397132e-05 -2.21156329e-02
  -5.20146601e-02 -8.55253190e-02 -5.62428981e-02 -1.91250816e-03
  -7.97649920e-02 -7.24737125e-04  2.27774307e-02 -4.65796934e-03
  -4.36611176e-02 -3.17096338e-02 -1.16789415e-01  2.01200880e-02
   1.51913064e-02  7.51390383e-02 -1.54631525e-01 -1.04086071e-01
   2.71848645e-02 -1.37362316e-01  2.17367858e-02  6.02135761e-03
   1.40003055e-01 -4.25455794e-02  1.31022036e-01  3.69820707e-02
  -1.64158136e-01  4.25963402e-02 -2.17830613e-02  3.74316014e-02
  -2.72915304e-01  1.34222722e-02  3.82034183e-02  5.20687662e-02
   2.29920652e-02  3.26203443e-02  7.17422813e-02  7.30538070e-02
   2.03459803e-03 -6.86700642e-02  4.39560041e-03 -4.03217599e-02
  -2.02705547e-01 -3.66860256e-02  1.38364378e-02  4.81978543e-02
  -7.90113583e-02 -5.23124076e-02 -3.54026370e-02 -6.25812486e-02
  -4.95951548e-02  1.90965131e-01 -8.66328552e-02 -8.24798718e-02
  -5.79486554e-03  1.07268989e-01 -9.16742906e-02 -1.68079287e-01
  -4.57424335e-02  1.47990033e-03 -3.05422042e-02 -1.37347862e-01
  -1.32218860e-02  2.02057417e-03 -7.17102289e-02  3.79412435e-03
  -1.87725713e-03  3.55697945e-02 -4.57686670e-02 -1.22151054e-01
  -5.07425591e-02 -4.44645211e-02  8.10735300e-02  1.08315016e-03
   6.65396526e-02 -4.10043523e-02 -7.99098536e-02  2.58395914e-03
   4.12791744e-02 -3.72202322e-02  2.10048944e-01 -2.60811169e-02
  -4.23297733e-02  5.98028041e-02 -1.52361989e-02  8.53560027e-03
   9.93061811e-03 -2.07400369e-03  1.47162288e-01 -4.11719121e-02
   4.63582575e-03 -3.43619995e-02  4.49078381e-02 -3.10315304e-02
  -1.55559078e-01 -6.70348667e-03  3.97952236e-02 -1.99329183e-02
  -3.20576467e-02 -6.66121095e-02 -1.22258905e-02 -1.68585107e-01
  -4.86764759e-02  4.89758737e-02  2.40087882e-02  1.56183001e-02
   5.22600748e-02 -1.68675706e-02 -7.64223561e-03 -3.51889804e-02
  -5.43497354e-02 -1.00361854e-01  4.50741053e-02 -5.52532449e-02
   8.48680548e-03  6.81247339e-02  6.37459084e-02 -2.16802442e-03]
 [-2.98015382e-02  2.42480766e-02  1.73490196e-02  2.19793841e-01
   5.46515025e-02 -9.20114666e-02 -1.20866768e-01 -1.46673933e-01
  -2.25195233e-02  2.20460426e-02 -1.08206451e-01 -1.71876684e-01
  -2.20015794e-02  3.13516073e-02  1.95944309e-01 -2.98245046e-02
  -4.00005504e-02 -3.78537993e-03  2.98879649e-02  1.87466126e-02
  -4.02050801e-02 -6.07497841e-02 -2.60003768e-02 -9.04850662e-02
  -6.09957352e-02  1.17589697e-01 -5.22073992e-02  1.57673687e-01
   1.74260691e-01  1.69588521e-01  7.99189438e-04  1.17560755e-02
   9.79815377e-04  1.97565462e-02  3.64414155e-02 -1.77967250e-02
   1.91105321e-01 -6.60141110e-02  3.35213281e-02 -9.12958533e-02
   1.85053591e-02  1.29821211e-01 -2.24475656e-02 -4.06345800e-02
  -6.59212992e-02 -1.27916867e-02  1.22836381e-02 -1.03932373e-01
  -7.68127441e-02 -1.15175679e-01  4.11037356e-02 -1.48299290e-02
  -5.62363528e-02 -1.18280843e-01 -4.91223373e-02  6.84163570e-02
   7.43628945e-03 -7.08324164e-02  4.66295034e-02  5.33054657e-02
  -5.41724227e-02  2.05467969e-01  2.93105142e-03 -6.19039275e-02
   1.18642384e-02  3.20912828e-03  7.93927256e-03  4.89706919e-02
  -5.18211089e-02 -5.27219512e-02 -7.61473179e-02 -4.86340113e-02
  -6.39970079e-02 -6.19583651e-02 -1.47318676e-01  2.98769698e-02
  -1.04169756e-01 -1.20609544e-01  4.72052768e-02 -1.91899195e-01
  -1.84008718e-01 -3.50550860e-02 -7.95273781e-02  4.03689744e-04
  -1.44166529e-01  1.47140902e-02 -5.24404421e-02 -7.18154237e-02
  -4.01021242e-02  4.38550003e-02 -1.43367067e-01  1.74214974e-01
   4.44864389e-03 -2.17267070e-02  3.58171053e-02  2.64471713e-02
  -1.61111858e-02 -1.35138235e-03 -1.87173188e-01  1.98645405e-02
   1.20328337e-01 -4.50634770e-02 -2.41637249e-02 -6.36797920e-02
   1.81741834e-01  3.27634476e-02  1.83309212e-01 -1.03070639e-01
  -8.31466168e-02  2.99279802e-02  4.03235247e-03 -2.54287302e-01
   3.74507755e-02  4.74931784e-02 -1.09699808e-01  4.11133282e-02
  -4.05526608e-02  2.80617159e-02 -4.09922935e-02  1.26626879e-01
   8.75085872e-03 -1.10570349e-01 -3.46475467e-02  5.72382212e-02
   2.46386956e-02  4.74561676e-02  3.70602384e-02 -2.24548262e-02]
 [-5.42306639e-02  8.07333644e-03  4.44732904e-02  2.34626904e-01
   2.61050373e-01 -6.77815378e-02 -1.14769176e-01  3.29709798e-03
  -6.15744144e-02 -3.25079113e-02 -3.97325940e-02  1.20259956e-01
   4.82874364e-02  1.67851627e-01  9.55271274e-02 -2.59605125e-02
  -1.03442460e-01  6.36459887e-03 -4.04824838e-02 -2.62903571e-01
   2.84448955e-02  1.59779601e-02  2.03561932e-02 -1.11256860e-01
  -3.87597494e-02  8.26547518e-02 -7.62313232e-02  6.03964664e-02
  -1.65363774e-02  8.71666446e-02  1.63124464e-02  2.46299163e-01
   2.18074825e-02  4.57210699e-03 -4.89103654e-03  2.55658552e-02
   1.60795916e-02  6.94045275e-02  4.45160568e-02  5.17046973e-02
   5.89150041e-02 -1.53619936e-02 -4.09967080e-02  2.39216210e-03
  -3.69757228e-02 -2.20877603e-01  1.72837824e-02 -7.50355124e-02
  -1.07106626e-01 -5.71261682e-02 -1.63203359e-01 -6.44249655e-03
   1.01419175e-02 -2.26311907e-02 -6.01561274e-03 -7.48188049e-03
   7.40546640e-03  1.13782706e-02 -1.64222829e-02  3.51949595e-02
   1.40192537e-02 -1.27429172e-01  5.32286428e-02 -7.45366439e-02
   1.60174966e-02  4.21399949e-03 -9.67877135e-02 -2.05797374e-01
   3.42783262e-03  2.17321254e-02 -7.08478242e-02 -1.13543481e-01
   1.87452212e-02 -5.45451678e-02 -2.86179841e-01 -1.88005999e-01
  -4.34048288e-03  2.27881566e-01 -2.17517391e-01  1.69691592e-01
  -1.55389801e-01 -8.18720534e-02  4.47038561e-02 -6.04302511e-02
   1.87363744e-01  3.04052955e-03  1.93567146e-02  1.85970202e-01
  -7.92079121e-02  5.41371927e-02 -1.44092608e-02 -9.44192708e-02
   1.58634987e-02  4.82011698e-02 -4.15290557e-02  2.54150331e-02
   1.69186518e-02  1.50757656e-03 -1.39701679e-01 -6.27341717e-02
  -1.32073397e-02 -2.90203094e-01 -3.89411598e-02 -3.94467264e-02
   1.51692508e-02 -1.80222429e-02  1.01862419e-02 -6.72164839e-03
  -2.51821578e-01  9.25142597e-03  1.09820929e-03 -8.71540383e-02
  -5.57898022e-02  2.66672801e-02  4.64833081e-02 -2.06844553e-01
  -2.87999418e-02  2.42568105e-02  4.75188419e-02  8.17161873e-02
  -1.18802339e-02 -9.09045804e-03 -1.43224783e-02 -1.83952272e-01
  -3.76837850e-02  3.37099284e-02 -1.16328470e-01 -2.09696088e-02]
 [ 4.80939746e-02  3.91331129e-02  1.30812600e-02  3.37381512e-02
  -4.03005123e-01 -7.41063207e-02 -1.06344663e-01 -1.15574323e-01
   2.74943188e-02 -2.38932278e-02  3.57466564e-02 -4.25987318e-02
   1.17058918e-01 -4.80019376e-02 -1.26685321e-01  4.32357788e-02
  -8.31222385e-02 -4.80966736e-03  2.66444404e-02 -3.93495299e-02
   5.89652136e-02  1.91067718e-02 -8.31068456e-02 -4.67488170e-02
   2.51180828e-02  1.33456156e-01  4.18016240e-02  1.09960198e-01
   3.97095121e-02 -1.18590593e-02 -1.43229077e-02 -8.68552029e-02
   7.47541711e-02 -3.45643610e-02 -1.43211484e-01  9.05762333e-03
   8.54803436e-03 -1.09706245e-01  6.44577593e-02  8.13118741e-02
  -2.38047689e-02  1.14106178e-01  4.34884652e-02 -5.42216823e-02
   4.14933190e-02 -8.41793045e-02 -1.57573342e-01  7.14796130e-03
   6.83470368e-02 -1.17314653e-02 -7.87216648e-02  7.35441968e-02
   2.38428228e-02 -2.76021138e-02 -2.38992963e-02  4.05287854e-02
  -5.69069833e-02  6.75101355e-02 -8.13445076e-02  2.13936158e-02
   3.12543437e-02 -2.08632767e-01  6.52245879e-02 -1.50282299e-02
   2.73373276e-02 -5.94720729e-02  8.36008564e-02 -7.32880905e-02
   4.90939897e-03 -4.77827340e-03 -1.18783601e-01  3.24106105e-02
   1.68727264e-02  1.71757787e-02  2.53780913e-02  4.25448157e-02
   2.78416984e-02  5.99753298e-03  6.73438981e-02  1.81191593e-01
  -1.42324284e-01  8.58082436e-03  6.60718828e-02  7.20185041e-03
  -2.31843046e-03 -9.88148004e-02 -5.99678978e-02 -3.44113931e-02
   2.64046565e-02  3.31439823e-02 -8.31745863e-02 -3.24321896e-01
  -1.55236311e-02  9.87209678e-02 -6.40346408e-02 -3.00098886e-03
  -4.11063172e-02  2.65604239e-02 -5.17709032e-02 -3.50061571e-03
   2.53776591e-02 -1.96290210e-01  4.33506407e-02  2.88684089e-02
   8.47290978e-02  1.36945412e-01  4.50794920e-02 -5.28949723e-02
   2.06079353e-02 -9.10138413e-02  4.21711430e-02 -6.23112097e-02
  -1.43432498e-01  5.97509891e-02  1.52269900e-01  9.07218531e-02
  -2.03069486e-02  1.77822672e-02  3.53504717e-03 -5.29982224e-02
   7.37690507e-03 -1.78247131e-02 -8.53340700e-03 -8.09683129e-02
  -1.02067702e-02 -3.13145854e-02  4.37712967e-02  7.04065803e-03]
 [-3.66365910e-02  2.93395706e-02  5.16363792e-03 -8.20791945e-02
   3.55959497e-02 -1.18011706e-01  5.90475425e-02 -4.06013578e-02
   1.06923077e-02 -6.71218559e-02 -1.11271918e-01  1.52103990e-01
  -4.75238413e-02  7.79953301e-02  4.21853326e-02 -4.92607392e-02
   2.22970843e-02 -7.70307779e-02 -4.57693301e-02  1.41318530e-01
  -1.04424944e-02 -4.94166929e-03 -1.72366768e-01 -8.04259349e-03
  -2.26642676e-02  8.43303129e-02  1.95665099e-03 -1.48480877e-01
  -2.49134958e-01 -1.35658801e-01 -4.25518192e-02 -5.61081944e-03
   7.98053965e-02  4.35626209e-02 -1.37537554e-01  2.29501296e-02
   2.08646551e-01  1.91197712e-02  9.35946405e-03  3.52195129e-02
   2.04034805e-01  3.02151144e-02  4.87791039e-02 -7.81494603e-02
  -1.51286619e-02  1.26037195e-01 -1.54064577e-02 -1.10455893e-01
   1.17988162e-01 -7.09310919e-02  1.07584402e-01 -1.00061454e-01
  -4.16562408e-02 -5.96832633e-02 -8.31428170e-03 -3.48210777e-03
   3.75902951e-02 -4.39497381e-02 -2.49521490e-02 -5.94953671e-02
  -1.63134709e-02 -9.66457054e-02 -5.09073772e-02 -6.12470023e-02
  -5.90731576e-02  5.26773371e-02 -2.03211457e-02 -6.54690936e-02
   1.51790902e-01  2.70808805e-02 -9.20844153e-02  2.09577799e-01
  -9.13992245e-03 -2.80346721e-04 -1.11416981e-01 -2.13339720e-02
  -3.85218742e-03  9.48138162e-02  4.59966883e-02  2.39622639e-03
  -1.24614783e-01 -1.70864239e-02 -1.35091931e-01  4.84284163e-02
  -2.11868268e-02  2.12590699e-03  9.91922542e-02  4.11440507e-02
  -4.04816717e-02 -6.47223415e-03 -1.78526148e-01 -9.18750167e-02
  -5.69705851e-02  4.00065631e-02 -6.28265440e-02 -3.24924216e-02
   4.43808809e-02 -4.73318398e-02 -7.22361282e-02 -7.42054433e-02
  -4.71993908e-02 -1.69763163e-01  4.25819419e-02  2.33655353e-03
   1.29728153e-01 -3.08357943e-02  2.62116194e-02 -4.76298854e-02
   3.80268767e-02  3.24459514e-03 -8.68320838e-03 -2.51578502e-02
   7.73313418e-02  8.72051343e-03  1.59186032e-02 -1.75051302e-01
  -8.53152350e-02  5.92691067e-04  2.15229974e-03  4.04174477e-02
  -1.90814096e-03 -1.69559903e-02  5.30607775e-02  1.43144280e-01
   8.95850640e-03  5.35071902e-02 -1.97283596e-01  2.49106605e-02]
 [-2.68714176e-03 -2.21078433e-02 -4.36782874e-02 -1.46106735e-01
  -2.61987656e-01 -7.21783191e-02 -1.60377711e-01 -1.36919171e-01
  -5.87647334e-02  2.78457161e-02 -2.32217997e-01  7.57988319e-02
   1.22981377e-01 -3.10371649e-02 -1.19086541e-01 -4.92043793e-02
  -8.40900373e-03  6.15410507e-02  5.31464592e-02 -6.01989813e-02
  -1.22835254e-02  5.44083165e-03 -1.95287779e-01  4.80643436e-02
   9.20568779e-03  1.73833027e-01  2.88103484e-02 -1.93427484e-02
   1.74362361e-02  2.29417786e-01 -3.03876121e-02 -4.63713892e-02
   1.68680415e-01  1.49787851e-02 -1.07301712e-01 -7.17674708e-03
  -2.30609968e-01  1.23063877e-01 -6.29876629e-02  3.24762948e-02
   2.47415509e-02  1.56133205e-01  3.81818041e-02 -6.51367903e-02
  -4.66329642e-02 -1.22808799e-01 -8.83745030e-03 -3.26317340e-01
  -1.72117297e-02  5.99546358e-02 -1.01752646e-01  4.27716374e-02
  -3.36858034e-01 -9.67815518e-02 -4.23883200e-02  1.16374113e-01
  -4.56955917e-02  2.80469749e-02 -6.89712837e-02 -9.10182577e-03
  -4.14946340e-02  4.53945249e-02 -2.95657255e-02 -5.44763431e-02
  -2.08400600e-02 -3.55655164e-03 -7.72963092e-02  2.69626942e-03
   9.58402976e-02 -4.71090823e-02 -1.21751033e-01 -1.70731530e-01
  -6.23178966e-02 -6.36263415e-02 -1.23615563e-01 -1.15290038e-01
   2.08614767e-01 -5.14687672e-02 -2.48262331e-01  1.57608330e-01
   8.46223012e-02 -5.58531508e-02 -8.63872617e-02  1.31631438e-02
  -6.63977629e-03 -2.99449693e-02  8.42628479e-02  8.93107429e-03
   2.85228584e-02  2.21624156e-03  1.13374531e-01 -1.94588706e-01
  -3.10975127e-02  2.10697507e-03  3.73782171e-03 -3.89263071e-02
   4.51213643e-02 -7.95932040e-02  1.17442466e-01 -5.95086142e-02
  -3.16133015e-02  1.29129753e-01 -2.82491222e-02  5.92630059e-02
   5.84271364e-02 -8.37383643e-02  1.36691093e-01  1.16297357e-01
  -1.27564877e-01 -2.58757882e-02  2.97998870e-03 -1.65311754e-01
  -1.53207853e-01 -4.03323248e-02  1.39582669e-02 -3.87888104e-02
  -5.32828197e-02 -6.56480715e-03  3.58998589e-02 -5.11114299e-02
  -5.39915562e-02  2.84670256e-02 -3.78495082e-02  1.25963211e-01
  -5.46604171e-02 -5.92040978e-02  3.62911411e-02  4.70563304e-03]
 [-1.66628771e-02  2.32706908e-02  8.29018727e-02 -3.55342329e-02
  -1.78378478e-01  3.08904964e-02  8.60959142e-02  1.24223828e-02
  -3.16970684e-02 -4.00178954e-02 -8.23340043e-02  2.41998285e-02
   1.47737145e-01 -1.07533157e-01 -1.55681178e-01 -8.16673040e-04
  -1.56990618e-01  3.22763324e-02  5.89368865e-02 -9.36495215e-02
   4.96221259e-02 -8.04654434e-02 -3.35999019e-03  1.93271693e-02
   4.00318503e-02 -5.06433360e-02 -7.53095001e-03 -9.44417641e-02
   1.31758332e-01 -7.08412612e-03 -5.10481000e-02 -6.47404492e-02
   1.12979367e-01  1.10331587e-02 -5.67900389e-02  4.78153415e-02
  -9.58098471e-02  1.80160794e-02 -4.31522466e-02 -4.07361872e-02
  -2.49482080e-01 -1.32776806e-02 -4.08750027e-02  6.59494698e-02
  -4.21025492e-02 -2.70229429e-02  5.03119007e-02 -2.44471198e-03
  -2.96561360e-01 -1.21506907e-01 -1.86760664e-01  1.34771496e-01
  -7.27582872e-02  4.45298068e-02 -9.03511792e-03 -6.24703467e-02
  -2.16880143e-02  1.10233799e-02 -2.27047466e-02 -9.93651897e-02
  -2.97511369e-02  2.11781576e-01  2.88309921e-02 -5.67559414e-02
   3.20862979e-03  2.37527527e-02 -8.00372940e-03 -1.39963105e-01
  -9.73348841e-02  1.59244647e-03  8.76287669e-02 -1.30754367e-01
  -2.72262283e-02  1.96706653e-02 -1.10739425e-01 -8.09730217e-02
   1.66678742e-01  1.79485008e-01  1.84721150e-03 -2.06066504e-01
  -8.38032588e-02 -6.46958798e-02 -3.88381146e-02 -1.50693208e-03
   7.23500852e-04  2.69051525e-04 -1.10460065e-01  1.21256463e-01
   2.55358517e-02 -3.29134613e-02  1.93840399e-01 -8.61618221e-02
   6.47680485e-04 -5.38605601e-02  5.38682416e-02  2.13377178e-03
  -2.88998783e-02 -4.77763042e-02 -1.05006710e-01  9.48660374e-02
   1.02411941e-01 -2.81904116e-02  2.89543048e-02  1.16140470e-02
   3.60398442e-02 -4.25907262e-02 -5.61951846e-02 -5.32536805e-02
  -7.64388591e-03 -5.11283427e-02  3.95328365e-02 -2.07955495e-01
   4.41145971e-02 -1.92429163e-02  1.10444106e-01 -1.58852339e-01
   9.86407846e-02 -3.57139856e-04 -1.99242793e-02  7.81618804e-02
  -8.55732709e-03 -1.74839810e-01 -3.60347156e-04 -5.78457117e-02
  -3.55451740e-02 -1.84543990e-02  5.12504913e-02 -2.28311531e-02]
 [-2.35560699e-03  5.91377467e-02  3.38706151e-02  8.14311504e-02
   1.89521879e-01  7.82090127e-02 -1.91627756e-01 -1.32963851e-01
  -1.95617042e-02  4.51516248e-02 -8.56416579e-03  1.61130615e-02
  -2.77714692e-02  1.63551420e-01 -9.81337577e-02  2.67377663e-02
  -1.71885211e-02 -7.25916475e-02  2.74746353e-03  1.08664120e-02
  -1.04037747e-02 -4.74742539e-02 -8.91077220e-02 -7.72916991e-03
  -5.36170751e-02  3.57066914e-02 -2.24675477e-01  5.77682629e-02
   1.26963824e-01 -5.68700433e-02  4.02692854e-02  2.50310823e-02
  -1.49399191e-01 -1.11164078e-02 -2.82939047e-01  8.49089958e-03
   1.30636469e-01 -1.26459122e-01 -4.22341861e-02 -6.85592145e-02
   1.21393226e-01  1.56741023e-01 -7.31184985e-03  4.91179451e-02
  -4.77153808e-02 -1.68739557e-01 -2.34941747e-02 -4.96679507e-02
   1.43450290e-01 -1.16249703e-01 -3.28261070e-02 -3.28984186e-02
   1.11151308e-01 -5.09950072e-02 -6.40718341e-02  1.59940034e-01
   3.68121639e-02  1.51794553e-02 -1.41355777e-02 -5.30276506e-04
  -1.89492758e-02  5.10038212e-02 -6.83626011e-02  1.46109164e-02
  -4.86947522e-02  2.05373764e-02 -3.97387333e-02 -6.92509487e-02
  -1.64179336e-02  2.71057952e-02 -3.46840918e-02  3.37895229e-02
  -4.94334698e-02 -5.24454936e-03 -2.34727874e-01  8.32359400e-03
   1.63667444e-02  5.70605835e-03  1.35817468e-01 -6.84147701e-02
  -3.52677517e-02  2.67609246e-02 -7.74921179e-02  1.51193049e-02
   1.27632678e-01 -4.02023457e-02  7.64075620e-03  7.89866224e-02
  -8.65578204e-02  3.90353426e-02 -1.64116104e-03  2.71064304e-02
  -2.71979235e-02  2.52319034e-02 -8.94395858e-02 -4.67659570e-02
  -1.02297105e-02  1.51695237e-02  8.98662955e-02 -8.24291911e-03
  -3.06106489e-02  9.13946703e-02  1.21844595e-03 -2.46314076e-03
   1.67784523e-02  2.52310205e-02  9.95576754e-02  1.52793704e-02
  -5.26047163e-02 -7.05646574e-02 -6.39450923e-02 -1.17121436e-01
   1.27585799e-01  4.08812165e-02 -1.42749384e-01 -1.27541870e-01
  -3.18287616e-03 -3.00013218e-02 -5.33392169e-02  6.42714947e-02
   9.20964964e-03 -1.93074606e-02 -1.18219741e-02 -4.23573777e-02
   2.99612456e-03  3.61068808e-02 -3.55368387e-03 -3.30059393e-03]
 [ 3.06397974e-02  1.61880497e-02 -4.16891649e-02  1.53231099e-01
   1.44711465e-01 -1.54586881e-01 -2.47262791e-01 -7.05200732e-02
   7.41392327e-03 -6.69099391e-03 -4.82580103e-02 -2.60914657e-02
  -4.34277467e-02  1.59046233e-01  2.61272695e-02  1.26158074e-02
  -3.45857330e-02  6.52214512e-02  1.65177453e-02 -2.50865877e-01
  -2.54563969e-02 -5.95125742e-02  2.95030070e-03 -3.74418832e-02
   2.40974873e-02 -3.35899852e-02  3.63558643e-02  9.76887569e-02
  -3.32922675e-02  1.71045303e-01  1.80691238e-02  2.13800311e-01
   6.39420003e-03 -5.11096530e-02  8.01785812e-02 -1.81565359e-02
   1.24339275e-01  4.95406613e-03  4.93807383e-02 -1.50925694e-02
   1.11524239e-01  1.67769603e-02  2.95527354e-02 -7.85489082e-02
  -1.44647397e-02 -2.03929499e-01 -4.10631150e-02 -1.02185734e-01
  -9.92539153e-02  9.78694111e-02 -2.28132471e-01  3.68512981e-02
  -1.01513537e-02  2.46369876e-02 -3.93011309e-02 -4.02078666e-02
  -4.61682416e-02  5.26972464e-04 -3.57759185e-02 -2.05785409e-02
  -7.75329843e-02 -9.71528441e-02  4.31681871e-02  2.73700035e-03
   5.51604480e-03 -1.37581686e-02 -3.56181636e-02 -3.03498358e-02
  -1.16038509e-02  1.51761100e-02 -4.61980626e-02 -1.41627342e-01
  -2.99629271e-02 -1.36578381e-02 -1.09709576e-01 -9.11329389e-02
   1.01407439e-01  1.93136007e-01 -1.95848882e-01  8.98496807e-02
  -1.21528350e-01 -3.31314106e-04 -4.51923236e-02  2.51575410e-02
   7.22932890e-02 -2.09343079e-02 -1.02108292e-01  1.19657114e-01
   2.83383802e-02 -4.88096327e-02  1.98434331e-02 -2.94541746e-01
   2.75499541e-02 -6.30234852e-02  5.73220998e-02  3.52384965e-03
   4.76544872e-02  5.11575937e-02 -5.48201166e-02 -7.87042007e-02
   1.12414174e-01 -2.88479120e-01 -6.77722171e-02 -4.73704040e-02
   1.40358627e-01 -1.99106354e-02  1.16991378e-01 -3.80477458e-02
  -1.52013704e-01 -9.08403993e-02 -5.09324186e-02 -8.57148692e-02
  -6.14944026e-02  5.67041673e-02  5.69078214e-02 -2.11959228e-01
   4.21656594e-02 -7.10437074e-03 -2.77116150e-02  2.30016150e-02
   5.71592450e-02 -6.16468750e-02  1.08650501e-03 -2.82969117e-01
  -1.76086128e-02 -7.91630968e-02 -2.84024060e-01 -2.24764459e-03]
 [ 3.02575156e-02 -2.58331541e-02 -4.73709777e-02  1.31621778e-01
  -1.15555480e-01 -2.60142963e-02  4.24322598e-02 -2.14972302e-01
  -4.02632542e-02  1.87117700e-02  1.61476299e-01  1.34745568e-01
   1.49710989e-02 -9.82435867e-02  7.64936954e-02  2.43696570e-02
  -1.77405253e-02 -8.50306004e-02 -8.08780044e-02 -1.55364238e-02
   2.32185721e-02 -1.09973839e-02 -6.53281361e-02 -4.81840223e-02
  -1.03031714e-02 -1.33690108e-02 -6.86120838e-02  6.05629478e-03
   1.14536934e-01  7.58176968e-02 -2.99427547e-02 -2.40153968e-02
   2.04517059e-02 -4.55075577e-02 -8.27880949e-02  3.78100276e-02
   8.87732487e-03 -1.23608865e-01  5.08352779e-02  5.49035929e-02
  -5.22964820e-02  1.90524340e-01  5.55324443e-02 -9.82892960e-02
  -3.89192748e-04  8.67721885e-02 -1.42099068e-01 -1.00933835e-01
   2.34434515e-01 -6.58375546e-02  1.36592567e-01  1.41324416e-01
   2.94636358e-02 -5.53939268e-02  4.96015027e-02 -1.68820128e-01
  -5.06778918e-02  4.70233932e-02 -5.65784052e-02 -3.86472046e-02
  -3.15558049e-03 -5.16550094e-02 -9.01206210e-03  2.74975076e-02
   4.39061373e-02 -1.04243895e-02  7.93281496e-02  8.76480713e-02
  -4.17609997e-02  2.90519111e-02 -9.37457010e-02  9.04453099e-02
   3.24743837e-02 -8.64035264e-03  1.24827899e-01  3.66043560e-02
   2.61609647e-02 -1.41049996e-02  5.64188547e-02  2.01900646e-01
  -2.47559890e-01  2.04356611e-02  3.33908349e-02 -3.94247323e-02
  -4.14692163e-02 -2.47941893e-02 -2.12737188e-01 -1.93936661e-01
  -1.91477276e-02 -2.94923279e-02 -7.04270229e-02 -3.42614770e-01
  -2.21188627e-02  1.65199459e-01  2.30709538e-02  4.54475768e-02
  -5.39809391e-02 -4.41496000e-02 -1.15120865e-01 -4.25201766e-02
  -1.30350385e-02 -1.27515391e-01  3.60321160e-03  3.19061577e-02
   5.67696728e-02  8.37896094e-02 -8.00806582e-02 -8.57886951e-03
  -7.11869523e-02 -1.37982238e-02  1.59206614e-02  1.18600272e-01
  -1.32240698e-01 -3.66203040e-02  9.50615034e-02  2.07956787e-02
  -1.10045532e-02 -5.14579490e-02 -2.62691490e-02  3.31308972e-03
  -6.26860233e-03 -1.73385851e-02 -6.56300187e-02  2.63073947e-02
  -3.97734009e-02 -6.57184497e-02 -8.65004882e-02 -6.06968105e-02]
 [-6.27655387e-02 -3.62538770e-02  1.38533106e-02 -1.36133403e-01
   1.42805651e-02 -3.13339606e-02 -9.09154117e-03 -1.45641565e-01
  -4.67654429e-02 -4.58989739e-02  2.55159643e-02  1.18283235e-01
  -2.48038825e-02 -7.28537291e-02 -1.65358707e-01  1.44544793e-02
   2.44944338e-02  6.91775349e-04  4.59593311e-02 -7.61096328e-02
   3.20678987e-02  5.07948883e-02 -1.03976578e-01 -1.94074158e-02
  -7.38056228e-02 -2.63473392e-01  2.57264581e-02 -1.95118204e-01
  -1.43565357e-01 -1.16589963e-01 -4.63863835e-03 -1.81174248e-01
  -1.19346622e-02 -5.99782430e-02  4.90740575e-02  4.86115925e-03
  -4.94628660e-02  6.78696632e-02 -7.49050081e-03 -6.04746416e-02
   1.36618853e-01  2.40346845e-02  4.13418822e-02 -3.33494805e-02
   2.79150307e-02 -1.61994904e-01  5.11841737e-02 -1.15522720e-01
   4.78040874e-02  9.70932096e-02 -6.75100610e-02 -1.67067260e-01
   7.39354268e-02 -2.54894942e-02 -2.21489789e-03  8.09567422e-03
   3.85405980e-02 -1.39964940e-02 -6.78191110e-02 -3.92427258e-02
  -3.35899517e-02 -2.48261672e-02 -1.60959754e-02 -5.98250628e-02
   2.57975571e-02 -7.62947127e-02  6.43153861e-02 -1.70114964e-01
  -1.51464432e-01  1.80872492e-02 -2.89354492e-02  1.65499717e-01
  -1.60731394e-02 -1.28164962e-02  2.83826292e-02  8.16622935e-03
   7.93173909e-02  4.00710367e-02  1.21823184e-01 -1.19242379e-02
   1.21682405e-01 -4.18778434e-02  1.76394749e-02 -2.75472868e-02
   9.54440683e-02 -3.09028160e-02 -1.42324492e-01  7.98239782e-02
  -5.91807328e-02 -3.21822502e-02 -1.51534557e-01 -3.41044337e-01
  -4.49935012e-02  6.79914281e-02  2.92415004e-02 -3.30050327e-02
   5.86778857e-03  1.30664222e-02 -1.35566965e-01 -2.10508704e-02
  -4.16090228e-02  5.79018071e-02 -2.17213035e-02 -3.15744206e-02
   1.84838444e-01 -6.41624331e-02 -5.26134740e-04 -2.91628446e-02
   8.50877240e-02 -1.10011727e-01  1.88522344e-03  3.98213556e-03
   1.04662508e-01 -4.21369448e-03  7.71432295e-02 -1.89358741e-02
   1.41822591e-01 -6.46120682e-02 -3.66469212e-02  4.35734056e-02
   5.24930768e-02  3.52617800e-02 -3.02805416e-02  8.39503929e-02
  -3.76851037e-02  3.15542929e-02 -9.75816175e-02 -1.13886036e-02]
 [ 4.46833670e-02 -1.26601430e-02  1.78353600e-02 -2.30791152e-01
  -7.93278143e-02  6.59603477e-02 -8.21329355e-02 -5.99431098e-02
  -1.79929826e-02  2.79284250e-02 -3.26124877e-01  4.73999195e-02
   2.00812835e-02 -5.70497364e-02  1.07955210e-01  5.12491576e-02
   7.16982707e-02  3.10268793e-02  2.00010464e-02 -2.15215161e-01
  -6.62650093e-02  7.26042762e-02 -6.95175081e-02  2.51200236e-02
  -4.45931107e-02  2.36029342e-01  1.51432693e-01  4.44887057e-02
   5.12817279e-02  1.33187518e-01  1.45430444e-02 -5.48064969e-02
  -3.41516212e-02 -3.27351131e-02  3.58976759e-02 -4.86671589e-02
   6.44353405e-02 -2.84677055e-02  1.66877061e-02  2.59810500e-02
  -7.67727243e-03  1.68859169e-01 -4.20830287e-02 -4.98205274e-02
  -1.67277157e-02  6.43703341e-03 -3.68996756e-04 -1.96877822e-01
  -3.86414900e-02  9.31973830e-02  1.45223841e-01 -2.79072812e-03
  -1.83470026e-01 -1.37276188e-01 -1.16215751e-03 -2.36653060e-01
   5.42226918e-02 -5.38434684e-02  2.75185448e-03 -3.24220099e-02
  -3.08473245e-03 -1.38877789e-02  2.38206722e-02  1.66377593e-02
   5.00078835e-02 -2.58532763e-02 -5.11489026e-02  1.25117734e-01
   2.74908841e-02  4.47711488e-03  7.70552456e-02 -1.18271247e-01
  -3.69467633e-03  1.49255283e-02  9.58267003e-02  8.81713629e-02
  -2.13813439e-01  1.81374252e-01 -1.36173517e-01 -1.37655027e-02
  -1.41293541e-01 -5.64618446e-02 -4.82017770e-02  3.25055383e-02
  -3.08295693e-02 -8.06145668e-02 -1.18670575e-01 -6.70780167e-02
  -2.78506819e-02  1.12055801e-02 -3.66430543e-02 -1.64798334e-01
  -1.39299431e-03 -3.10802162e-02 -4.87340242e-02 -3.91909406e-02
  -2.85912771e-02 -6.16230629e-02 -2.87977904e-02 -1.13350108e-01
   1.36968702e-01  8.89263377e-02 -2.31378675e-02 -3.46978381e-02
   1.25746951e-02  4.65451181e-02  3.05729937e-02 -2.19478998e-02
  -1.98200289e-02 -3.32710817e-02  3.16572143e-03 -2.30009913e-01
  -4.71642837e-02  1.97003060e-03  1.58443779e-01 -4.90377434e-02
  -3.35299782e-02 -4.70484458e-02 -6.50392473e-03  1.82231385e-02
   1.78375747e-02 -1.23390689e-01 -2.45736968e-02 -5.92706027e-03
  -4.85104360e-02 -6.26162365e-02  1.63483709e-01  2.39589773e-02]
 [-2.03315299e-02  3.29208337e-02 -1.62055083e-02 -1.25327975e-01
  -1.60443425e-01 -2.01423302e-01 -1.22704677e-01 -1.29468683e-02
  -7.08255395e-02  4.08228710e-02 -1.83949530e-01 -1.07052237e-01
   8.06949567e-03 -3.61697073e-03 -5.12449183e-02  5.40676937e-02
   1.14888564e-01 -2.57251784e-02 -6.58796926e-04  5.31616621e-02
   1.33542409e-02 -2.17044121e-03 -1.47397131e-01  3.24430130e-02
  -1.36286449e-02 -8.60101879e-02  6.42252937e-02  1.85812786e-01
   5.13637066e-03 -6.82319552e-02 -1.27509646e-02 -1.16894260e-01
  -4.90520522e-02 -5.57887703e-02 -5.39097972e-02 -1.14230094e-02
   7.10846484e-02 -1.86275750e-01  4.84514690e-04  3.65125127e-02
  -2.74439126e-01 -7.56727606e-02 -4.56282347e-02 -4.60554734e-02
  -1.00248381e-02  4.12311554e-02 -1.13366439e-03 -2.59203743e-03
  -7.25051165e-02 -1.78345770e-01  1.58537496e-02 -2.15322282e-02
  -7.80041292e-02 -1.32535333e-02 -2.22954731e-02 -1.43348545e-01
  -7.41106570e-02 -8.33368003e-02 -4.71231574e-03 -6.62222579e-02
  -5.20438328e-02  2.00980589e-01  3.76800336e-02 -4.57223393e-02
   6.79004937e-03  8.80191289e-03 -2.67848298e-02 -3.13721687e-01
   9.41411406e-02  5.73814660e-03  8.16865340e-02 -1.09780841e-01
  -4.89522852e-02 -8.28351900e-02 -5.20621717e-04 -4.04942110e-02
  -6.56420738e-02  1.14545219e-01 -1.46090239e-01 -2.68314391e-01
  -2.31269419e-01 -1.02945119e-01  3.56099345e-02 -5.40475734e-02
   1.15593188e-01  3.79543230e-02  3.33490483e-02  5.12177944e-02
   3.38510200e-02  3.12085915e-02  2.51821220e-01  4.38677296e-02
  -5.31396233e-02  4.13303263e-02  4.53992821e-02  3.45347598e-02
   4.77711111e-03  4.67748716e-02 -2.99568754e-02 -4.06784425e-03
   5.77922724e-02 -4.25650962e-02  8.23227223e-03 -1.49871185e-02
  -1.07264034e-02 -9.80551727e-03 -9.23231244e-02 -2.95812339e-02
  -4.38219383e-02  6.89145103e-02 -4.96755242e-02 -9.20711234e-02
   1.19390003e-01  4.89403233e-02 -1.18320987e-01 -5.38826771e-02
  -1.40154967e-03 -2.90773623e-03  4.59196009e-02  1.69582968e-03
   5.26981242e-02 -5.11084460e-02 -3.99872586e-02  3.61868460e-03
  -3.36560868e-02  4.76026572e-02  1.67755655e-03 -2.26858389e-02]
 [ 4.92427833e-02 -1.62418298e-02 -3.58917750e-02 -1.94173474e-02
   1.00253895e-02  4.36242968e-02 -1.41828895e-01 -3.71603727e-01
  -3.23371366e-02  3.03244330e-02  3.43284979e-02  1.01659313e-01
  -2.01380663e-02 -6.87655956e-02 -5.72384000e-02  1.84520297e-02
  -6.13555759e-02 -6.06415421e-02  1.48971593e-02  3.66435610e-02
  -3.56482528e-02 -5.52630685e-02 -1.07747398e-01 -4.69142981e-02
  -4.07250263e-02  6.67518079e-02 -1.79062650e-01 -5.80394566e-02
   8.50684717e-02  1.21941615e-03 -2.71803401e-02  3.45190652e-02
  -9.06760842e-02  9.09820665e-04 -1.22034259e-01 -2.74368804e-02
  -1.07164763e-01 -8.08635801e-02 -4.05659042e-02 -1.33438939e-02
   6.46713227e-02 -4.43283468e-02 -5.83766438e-02  3.12136188e-02
  -2.66768649e-04 -7.78359249e-02 -2.91108303e-02 -4.24592122e-02
  -2.73727272e-02 -3.40177454e-02 -6.21427000e-02 -1.18742868e-01
  -1.63535774e-01 -6.84154686e-03  2.74811331e-02 -1.22141056e-02
  -6.76258234e-03 -1.42411282e-03  2.79800668e-02  3.46733183e-02
  -3.00405417e-02  1.21397018e-01 -6.31738678e-02  4.88823093e-02
   2.43289266e-02  1.00489752e-02 -5.14858700e-02  6.51247278e-02
   2.41264522e-01  4.53853346e-02 -5.58083542e-02 -1.35310858e-01
  -1.23357130e-02 -2.10024975e-02 -1.85494646e-02 -3.19112316e-02
   8.81204382e-02 -1.19068868e-01 -1.19636953e-01 -1.01817049e-01
   5.34855202e-03  2.25774441e-02 -2.02308688e-02 -2.44743116e-02
  -1.22373616e-02  3.56460065e-02 -4.83498089e-02 -6.25877231e-02
  -8.39296728e-03 -4.04802784e-02 -1.59131514e-03 -4.64197807e-02
  -2.59972233e-02  5.62868174e-03 -1.39607338e-03 -1.24628050e-02
  -3.97544503e-02  2.97725536e-02 -6.24590088e-03  1.81206360e-01
  -6.57558348e-03  1.78141639e-01 -5.09559177e-02 -4.67247926e-02
  -6.89638406e-02 -1.47108557e-02  9.27768461e-03  2.08664574e-02
   1.40849152e-04 -8.68869796e-02 -4.56865244e-02 -9.50554982e-02
   1.94526955e-01 -2.74193729e-03  1.05651785e-02 -1.94086842e-02
  -5.13234586e-02 -9.03144851e-03  3.99181657e-02  2.46933121e-02
   3.87808718e-02 -2.43886746e-02 -4.71823439e-02  1.82473715e-02
   3.17944326e-02 -3.49229015e-02 -6.07883278e-03 -3.46583985e-02]
 [-3.25248763e-02 -2.91891918e-02 -1.23812621e-02  1.10279009e-01
   1.35534808e-01 -1.22359179e-01 -2.85742253e-01 -1.30635472e-02
   9.21835005e-03 -8.07095878e-03  1.77462827e-02  3.48287709e-02
  -1.14285186e-01  1.33036599e-01  3.68270874e-01 -1.21123642e-02
   6.30115205e-03 -1.99234895e-02  1.90720223e-02 -2.39738837e-01
   3.51129659e-03 -3.03002587e-03 -1.46006435e-01 -8.12408999e-02
   5.72350398e-02  1.19082265e-01  5.20555899e-02  9.24977567e-03
  -9.25535895e-03  3.10656637e-01 -3.49725075e-02  1.28068998e-01
   2.39309780e-02  2.28561908e-02  1.06346771e-01 -6.88763931e-02
   7.64626786e-02 -2.39312928e-03  9.40480605e-02 -1.05040101e-02
   5.66022173e-02  3.16370763e-02  2.81156451e-02  1.41701875e-02
   3.01736761e-02 -1.38200149e-01 -1.27810277e-02  1.11327194e-01
  -1.40778288e-01 -4.54312749e-02 -7.84218609e-02  1.75418928e-02
  -1.05486050e-01 -2.91749593e-02 -3.95241342e-02  2.07910538e-01
  -2.76053734e-02  2.92674210e-02 -4.65684906e-02  6.59875348e-02
   1.88444310e-03  4.81121354e-02  4.80746888e-02 -1.89797475e-03
   5.42823449e-02  5.22901453e-02  8.52656737e-03 -2.45821729e-01
  -8.53041783e-02  7.64543563e-03 -5.96046820e-02 -4.05709781e-02
  -2.74216346e-02  2.74511576e-02 -9.52596217e-03 -1.73565388e-01
   8.56241509e-02  4.06246066e-01 -2.86909014e-01  1.77928045e-01
  -1.46593481e-01 -3.72934602e-02 -2.36391071e-02  3.37757245e-02
   2.87918914e-02 -7.34892488e-02  1.39699262e-02  1.73090324e-01
   1.13370093e-02  7.91772828e-03  1.87353920e-02 -2.26116627e-01
  -2.50221472e-02 -4.75129075e-02  2.31960863e-02 -2.49687899e-02
   2.51799822e-04  3.16401082e-03 -2.40150556e-01 -5.68606034e-02
   2.81345695e-02 -2.10005000e-01 -8.25953390e-03  2.42857039e-02
   2.38090709e-01 -2.44056638e-02  1.40077904e-01  4.39546257e-03
  -2.02751487e-01 -9.01559517e-02 -4.53927703e-02 -1.02072954e-01
  -4.91940230e-02 -6.23015165e-02 -3.50928083e-02 -1.99098364e-01
  -1.30066993e-02  2.16377228e-02  2.55552679e-02 -1.19632713e-01
   7.84552842e-03 -5.69598749e-02 -4.21445146e-02 -2.30891839e-01
   2.22801305e-02  1.45718893e-02 -2.04050004e-01  6.47217408e-02]
 [ 5.91409579e-02  5.36730774e-02 -3.26631442e-02  3.35949697e-02
   1.27559841e-01 -2.36123372e-02 -1.18677244e-01 -7.61855096e-02
   2.75417306e-02 -4.18435670e-02 -3.66990715e-02 -1.34649798e-01
  -2.88852192e-02  1.37556195e-01 -1.54807633e-02 -3.26540247e-02
  -1.08194664e-01 -5.16033359e-03 -4.04105969e-02 -1.70353428e-01
  -5.72076067e-03 -1.13867931e-02  4.15327027e-03 -1.13679022e-01
  -2.18715146e-02  9.08016562e-02 -7.91780800e-02  8.72653723e-02
